digraph Tree {
node [shape=box, style="filled, rounded", color="black", fontname="helvetica"] ;
edge [fontname="helvetica"] ;
0 [label="IC <= 0.048\ngini = 0.749\nsamples = 2087\nvalue = [541, 562, 479, 505]\nclass = MonoalphabeticSubstitution", fillcolor="#fdfffc"] ;
1 [label="IC <= 0.043\ngini = 0.34\nsamples = 487\nvalue = [18, 68, 389, 12]\nclass = Vigenere", fillcolor="#67b4eb"] ;
0 -> 1 [labeldistance=2.5, labelangle=45, headlabel="True"] ;
2 [label="IC <= 0.03\ngini = 0.215\nsamples = 328\nvalue = [4, 29, 289, 6]\nclass = Vigenere", fillcolor="#53aae8"] ;
1 -> 2 ;
3 [label="IC <= 0.03\ngini = 0.595\nsamples = 17\nvalue = [0, 7, 8, 2]\nclass = Vigenere", fillcolor="#ebf5fc"] ;
2 -> 3 ;
4 [label="Top9Letters <= 1499.5\ngini = 0.544\nsamples = 13\nvalue = [0, 3, 8, 2]\nclass = Vigenere", fillcolor="#9ccef2"] ;
3 -> 4 ;
5 [label="IC <= 0.024\ngini = 0.42\nsamples = 10\nvalue = [0, 3, 7, 0]\nclass = Vigenere", fillcolor="#8ec7f0"] ;
4 -> 5 ;
6 [label="gini = 0.0\nsamples = 5\nvalue = [0, 0, 5, 0]\nclass = Vigenere", fillcolor="#399de5"] ;
5 -> 6 ;
7 [label="Text <= 1687.5\ngini = 0.48\nsamples = 5\nvalue = [0, 3, 2, 0]\nclass = MonoalphabeticSubstitution", fillcolor="#c2f6bd"] ;
5 -> 7 ;
8 [label="gini = 0.0\nsamples = 3\nvalue = [0, 3, 0, 0]\nclass = MonoalphabeticSubstitution", fillcolor="#47e539"] ;
7 -> 8 ;
9 [label="gini = 0.0\nsamples = 2\nvalue = [0, 0, 2, 0]\nclass = Vigenere", fillcolor="#399de5"] ;
7 -> 9 ;
10 [label="Top9Letters <= 2002.0\ngini = 0.444\nsamples = 3\nvalue = [0, 0, 1, 2]\nclass = ceaser", fillcolor="#eb9cf2"] ;
4 -> 10 ;
11 [label="gini = 0.0\nsamples = 2\nvalue = [0, 0, 0, 2]\nclass = ceaser", fillcolor="#d739e5"] ;
10 -> 11 ;
12 [label="gini = 0.0\nsamples = 1\nvalue = [0, 0, 1, 0]\nclass = Vigenere", fillcolor="#399de5"] ;
10 -> 12 ;
13 [label="gini = 0.0\nsamples = 4\nvalue = [0, 4, 0, 0]\nclass = MonoalphabeticSubstitution", fillcolor="#47e539"] ;
3 -> 13 ;
14 [label="Top9Letters <= 44.5\ngini = 0.178\nsamples = 311\nvalue = [4, 22, 281, 4]\nclass = Vigenere", fillcolor="#4ea7e8"] ;
2 -> 14 ;
15 [label="Top9Letters <= 32.0\ngini = 0.694\nsamples = 7\nvalue = [1, 2, 3, 1]\nclass = Vigenere", fillcolor="#d7ebfa"] ;
14 -> 15 ;
16 [label="Top9Letters <= 4.0\ngini = 0.56\nsamples = 5\nvalue = [1, 0, 3, 1]\nclass = Vigenere", fillcolor="#9ccef2"] ;
15 -> 16 ;
17 [label="gini = 0.0\nsamples = 2\nvalue = [0, 0, 2, 0]\nclass = Vigenere", fillcolor="#399de5"] ;
16 -> 17 ;
18 [label="IC <= 0.038\ngini = 0.667\nsamples = 3\nvalue = [1, 0, 1, 1]\nclass = ColumnarTransposition", fillcolor="#ffffff"] ;
16 -> 18 ;
19 [label="gini = 0.0\nsamples = 1\nvalue = [0, 0, 1, 0]\nclass = Vigenere", fillcolor="#399de5"] ;
18 -> 19 ;
20 [label="Text <= 243.0\ngini = 0.5\nsamples = 2\nvalue = [1, 0, 0, 1]\nclass = ColumnarTransposition", fillcolor="#ffffff"] ;
18 -> 20 ;
21 [label="gini = 0.0\nsamples = 1\nvalue = [1, 0, 0, 0]\nclass = ColumnarTransposition", fillcolor="#e58139"] ;
20 -> 21 ;
22 [label="gini = 0.0\nsamples = 1\nvalue = [0, 0, 0, 1]\nclass = ceaser", fillcolor="#d739e5"] ;
20 -> 22 ;
23 [label="gini = 0.0\nsamples = 2\nvalue = [0, 2, 0, 0]\nclass = MonoalphabeticSubstitution", fillcolor="#47e539"] ;
15 -> 23 ;
24 [label="IC <= 0.039\ngini = 0.159\nsamples = 304\nvalue = [3, 20, 278, 3]\nclass = Vigenere", fillcolor="#4ba6e7"] ;
14 -> 24 ;
25 [label="Text <= 778.0\ngini = 0.089\nsamples = 195\nvalue = [1.0, 7.0, 186.0, 1.0]\nclass = Vigenere", fillcolor="#42a2e6"] ;
24 -> 25 ;
26 [label="Text <= 770.5\ngini = 0.148\nsamples = 62\nvalue = [0, 5, 57, 0]\nclass = Vigenere", fillcolor="#4aa6e7"] ;
25 -> 26 ;
27 [label="IC <= 0.037\ngini = 0.095\nsamples = 60\nvalue = [0, 3, 57, 0]\nclass = Vigenere", fillcolor="#43a2e6"] ;
26 -> 27 ;
28 [label="IC <= 0.037\ngini = 0.165\nsamples = 33\nvalue = [0, 3, 30, 0]\nclass = Vigenere", fillcolor="#4da7e8"] ;
27 -> 28 ;
29 [label="Top5Bigrams <= 816.0\ngini = 0.117\nsamples = 32\nvalue = [0, 2, 30, 0]\nclass = Vigenere", fillcolor="#46a4e7"] ;
28 -> 29 ;
30 [label="Top5Bigrams <= 762.0\ngini = 0.26\nsamples = 13\nvalue = [0, 2, 11, 0]\nclass = Vigenere", fillcolor="#5dafea"] ;
29 -> 30 ;
31 [label="Top5Bigrams <= 642.0\ngini = 0.153\nsamples = 12\nvalue = [0, 1, 11, 0]\nclass = Vigenere", fillcolor="#4ba6e7"] ;
30 -> 31 ;
32 [label="gini = 0.0\nsamples = 8\nvalue = [0, 0, 8, 0]\nclass = Vigenere", fillcolor="#399de5"] ;
31 -> 32 ;
33 [label="Top9Letters <= 669.5\ngini = 0.375\nsamples = 4\nvalue = [0, 1, 3, 0]\nclass = Vigenere", fillcolor="#7bbeee"] ;
31 -> 33 ;
34 [label="gini = 0.0\nsamples = 1\nvalue = [0, 1, 0, 0]\nclass = MonoalphabeticSubstitution", fillcolor="#47e539"] ;
33 -> 34 ;
35 [label="gini = 0.0\nsamples = 3\nvalue = [0, 0, 3, 0]\nclass = Vigenere", fillcolor="#399de5"] ;
33 -> 35 ;
36 [label="gini = 0.0\nsamples = 1\nvalue = [0, 1, 0, 0]\nclass = MonoalphabeticSubstitution", fillcolor="#47e539"] ;
30 -> 36 ;
37 [label="gini = 0.0\nsamples = 19\nvalue = [0, 0, 19, 0]\nclass = Vigenere", fillcolor="#399de5"] ;
29 -> 37 ;
38 [label="gini = 0.0\nsamples = 1\nvalue = [0, 1, 0, 0]\nclass = MonoalphabeticSubstitution", fillcolor="#47e539"] ;
28 -> 38 ;
39 [label="gini = 0.0\nsamples = 27\nvalue = [0, 0, 27, 0]\nclass = Vigenere", fillcolor="#399de5"] ;
27 -> 39 ;
40 [label="gini = 0.0\nsamples = 2\nvalue = [0, 2, 0, 0]\nclass = MonoalphabeticSubstitution", fillcolor="#47e539"] ;
26 -> 40 ;
41 [label="IC <= 0.036\ngini = 0.059\nsamples = 133\nvalue = [1, 2, 129, 1]\nclass = Vigenere", fillcolor="#3fa0e6"] ;
25 -> 41 ;
42 [label="IC <= 0.036\ngini = 0.096\nsamples = 60\nvalue = [0, 2, 57, 1]\nclass = Vigenere", fillcolor="#43a2e6"] ;
41 -> 42 ;
43 [label="Top5Bigrams <= 1805.0\ngini = 0.066\nsamples = 59\nvalue = [0, 1, 57, 1]\nclass = Vigenere", fillcolor="#40a0e6"] ;
42 -> 43 ;
44 [label="Top9Letters <= 1426.5\ngini = 0.038\nsamples = 52\nvalue = [0, 0, 51, 1]\nclass = Vigenere", fillcolor="#3d9fe6"] ;
43 -> 44 ;
45 [label="gini = 0.0\nsamples = 36\nvalue = [0, 0, 36, 0]\nclass = Vigenere", fillcolor="#399de5"] ;
44 -> 45 ;
46 [label="Top9Letters <= 1438.0\ngini = 0.117\nsamples = 16\nvalue = [0, 0, 15, 1]\nclass = Vigenere", fillcolor="#46a4e7"] ;
44 -> 46 ;
47 [label="gini = 0.0\nsamples = 1\nvalue = [0, 0, 0, 1]\nclass = ceaser", fillcolor="#d739e5"] ;
46 -> 47 ;
48 [label="gini = 0.0\nsamples = 15\nvalue = [0, 0, 15, 0]\nclass = Vigenere", fillcolor="#399de5"] ;
46 -> 48 ;
49 [label="Top5Bigrams <= 1817.0\ngini = 0.245\nsamples = 7\nvalue = [0, 1, 6, 0]\nclass = Vigenere", fillcolor="#5aade9"] ;
43 -> 49 ;
50 [label="gini = 0.0\nsamples = 1\nvalue = [0, 1, 0, 0]\nclass = MonoalphabeticSubstitution", fillcolor="#47e539"] ;
49 -> 50 ;
51 [label="gini = 0.0\nsamples = 6\nvalue = [0, 0, 6, 0]\nclass = Vigenere", fillcolor="#399de5"] ;
49 -> 51 ;
52 [label="gini = 0.0\nsamples = 1\nvalue = [0, 1, 0, 0]\nclass = MonoalphabeticSubstitution", fillcolor="#47e539"] ;
42 -> 52 ;
53 [label="IC <= 0.039\ngini = 0.027\nsamples = 73\nvalue = [1, 0, 72, 0]\nclass = Vigenere", fillcolor="#3c9ee5"] ;
41 -> 53 ;
54 [label="gini = 0.0\nsamples = 56\nvalue = [0, 0, 56, 0]\nclass = Vigenere", fillcolor="#399de5"] ;
53 -> 54 ;
55 [label="IC <= 0.039\ngini = 0.111\nsamples = 17\nvalue = [1, 0, 16, 0]\nclass = Vigenere", fillcolor="#45a3e7"] ;
53 -> 55 ;
56 [label="gini = 0.0\nsamples = 1\nvalue = [1, 0, 0, 0]\nclass = ColumnarTransposition", fillcolor="#e58139"] ;
55 -> 56 ;
57 [label="gini = 0.0\nsamples = 16\nvalue = [0, 0, 16, 0]\nclass = Vigenere", fillcolor="#399de5"] ;
55 -> 57 ;
58 [label="IC <= 0.04\ngini = 0.273\nsamples = 109\nvalue = [2, 13, 92, 2]\nclass = Vigenere", fillcolor="#5caeea"] ;
24 -> 58 ;
59 [label="gini = 0.0\nsamples = 3\nvalue = [0, 3, 0, 0]\nclass = MonoalphabeticSubstitution", fillcolor="#47e539"] ;
58 -> 59 ;
60 [label="IC <= 0.04\ngini = 0.237\nsamples = 106\nvalue = [2, 10, 92, 2]\nclass = Vigenere", fillcolor="#56abe9"] ;
58 -> 60 ;
61 [label="IC <= 0.04\ngini = 0.491\nsamples = 17\nvalue = [0, 5, 11, 1]\nclass = Vigenere", fillcolor="#9ccef2"] ;
60 -> 61 ;
62 [label="Text <= 1289.0\ngini = 0.292\nsamples = 12\nvalue = [0, 1, 10, 1]\nclass = Vigenere", fillcolor="#5dafea"] ;
61 -> 62 ;
63 [label="gini = 0.0\nsamples = 6\nvalue = [0, 0, 6, 0]\nclass = Vigenere", fillcolor="#399de5"] ;
62 -> 63 ;
64 [label="Text <= 1319.5\ngini = 0.5\nsamples = 6\nvalue = [0, 1, 4, 1]\nclass = Vigenere", fillcolor="#88c4ef"] ;
62 -> 64 ;
65 [label="gini = 0.0\nsamples = 1\nvalue = [0, 1, 0, 0]\nclass = MonoalphabeticSubstitution", fillcolor="#47e539"] ;
64 -> 65 ;
66 [label="Top9Letters <= 1276.5\ngini = 0.32\nsamples = 5\nvalue = [0, 0, 4, 1]\nclass = Vigenere", fillcolor="#6ab6ec"] ;
64 -> 66 ;
67 [label="gini = 0.0\nsamples = 3\nvalue = [0, 0, 3, 0]\nclass = Vigenere", fillcolor="#399de5"] ;
66 -> 67 ;
68 [label="Text <= 1549.0\ngini = 0.5\nsamples = 2\nvalue = [0, 0, 1, 1]\nclass = Vigenere", fillcolor="#ffffff"] ;
66 -> 68 ;
69 [label="gini = 0.0\nsamples = 1\nvalue = [0, 0, 0, 1]\nclass = ceaser", fillcolor="#d739e5"] ;
68 -> 69 ;
70 [label="gini = 0.0\nsamples = 1\nvalue = [0, 0, 1, 0]\nclass = Vigenere", fillcolor="#399de5"] ;
68 -> 70 ;
71 [label="Top9Letters <= 464.5\ngini = 0.32\nsamples = 5\nvalue = [0, 4, 1, 0]\nclass = MonoalphabeticSubstitution", fillcolor="#75ec6a"] ;
61 -> 71 ;
72 [label="gini = 0.0\nsamples = 1\nvalue = [0, 0, 1, 0]\nclass = Vigenere", fillcolor="#399de5"] ;
71 -> 72 ;
73 [label="gini = 0.0\nsamples = 4\nvalue = [0, 4, 0, 0]\nclass = MonoalphabeticSubstitution", fillcolor="#47e539"] ;
71 -> 73 ;
74 [label="Top9Letters <= 112.5\ngini = 0.168\nsamples = 89\nvalue = [2, 5, 81, 1]\nclass = Vigenere", fillcolor="#4ca6e7"] ;
60 -> 74 ;
75 [label="gini = 0.0\nsamples = 1\nvalue = [0, 0, 0, 1]\nclass = ceaser", fillcolor="#d739e5"] ;
74 -> 75 ;
76 [label="Text <= 436.0\ngini = 0.149\nsamples = 88\nvalue = [2, 5, 81, 0]\nclass = Vigenere", fillcolor="#4aa5e7"] ;
74 -> 76 ;
77 [label="Text <= 390.0\ngini = 0.449\nsamples = 14\nvalue = [2, 2, 10, 0]\nclass = Vigenere", fillcolor="#7bbeee"] ;
76 -> 77 ;
78 [label="Top5Bigrams <= 1658.0\ngini = 0.379\nsamples = 13\nvalue = [1, 2, 10, 0]\nclass = Vigenere", fillcolor="#6fb8ec"] ;
77 -> 78 ;
79 [label="Top9Letters <= 691.0\ngini = 0.292\nsamples = 12\nvalue = [1, 1, 10, 0]\nclass = Vigenere", fillcolor="#5dafea"] ;
78 -> 79 ;
80 [label="Top9Letters <= 485.5\ngini = 0.5\nsamples = 6\nvalue = [1, 1, 4, 0]\nclass = Vigenere", fillcolor="#88c4ef"] ;
79 -> 80 ;
81 [label="IC <= 0.041\ngini = 0.32\nsamples = 5\nvalue = [1, 0, 4, 0]\nclass = Vigenere", fillcolor="#6ab6ec"] ;
80 -> 81 ;
82 [label="gini = 0.0\nsamples = 3\nvalue = [0, 0, 3, 0]\nclass = Vigenere", fillcolor="#399de5"] ;
81 -> 82 ;
83 [label="IC <= 0.042\ngini = 0.5\nsamples = 2\nvalue = [1, 0, 1, 0]\nclass = ColumnarTransposition", fillcolor="#ffffff"] ;
81 -> 83 ;
84 [label="gini = 0.0\nsamples = 1\nvalue = [1, 0, 0, 0]\nclass = ColumnarTransposition", fillcolor="#e58139"] ;
83 -> 84 ;
85 [label="gini = 0.0\nsamples = 1\nvalue = [0, 0, 1, 0]\nclass = Vigenere", fillcolor="#399de5"] ;
83 -> 85 ;
86 [label="gini = 0.0\nsamples = 1\nvalue = [0, 1, 0, 0]\nclass = MonoalphabeticSubstitution", fillcolor="#47e539"] ;
80 -> 86 ;
87 [label="gini = 0.0\nsamples = 6\nvalue = [0, 0, 6, 0]\nclass = Vigenere", fillcolor="#399de5"] ;
79 -> 87 ;
88 [label="gini = 0.0\nsamples = 1\nvalue = [0, 1, 0, 0]\nclass = MonoalphabeticSubstitution", fillcolor="#47e539"] ;
78 -> 88 ;
89 [label="gini = 0.0\nsamples = 1\nvalue = [1, 0, 0, 0]\nclass = ColumnarTransposition", fillcolor="#e58139"] ;
77 -> 89 ;
90 [label="Text <= 1948.0\ngini = 0.078\nsamples = 74\nvalue = [0, 3, 71, 0]\nclass = Vigenere", fillcolor="#41a1e6"] ;
76 -> 90 ;
91 [label="Top9Letters <= 1356.5\ngini = 0.056\nsamples = 69\nvalue = [0, 2, 67, 0]\nclass = Vigenere", fillcolor="#3fa0e6"] ;
90 -> 91 ;
92 [label="gini = 0.0\nsamples = 44\nvalue = [0, 0, 44, 0]\nclass = Vigenere", fillcolor="#399de5"] ;
91 -> 92 ;
93 [label="Top5Bigrams <= 1374.5\ngini = 0.147\nsamples = 25\nvalue = [0, 2, 23, 0]\nclass = Vigenere", fillcolor="#4aa6e7"] ;
91 -> 93 ;
94 [label="gini = 0.0\nsamples = 1\nvalue = [0, 1, 0, 0]\nclass = MonoalphabeticSubstitution", fillcolor="#47e539"] ;
93 -> 94 ;
95 [label="IC <= 0.042\ngini = 0.08\nsamples = 24\nvalue = [0, 1, 23, 0]\nclass = Vigenere", fillcolor="#42a1e6"] ;
93 -> 95 ;
96 [label="gini = 0.0\nsamples = 19\nvalue = [0, 0, 19, 0]\nclass = Vigenere", fillcolor="#399de5"] ;
95 -> 96 ;
97 [label="Top9Letters <= 1631.5\ngini = 0.32\nsamples = 5\nvalue = [0, 1, 4, 0]\nclass = Vigenere", fillcolor="#6ab6ec"] ;
95 -> 97 ;
98 [label="gini = 0.0\nsamples = 1\nvalue = [0, 1, 0, 0]\nclass = MonoalphabeticSubstitution", fillcolor="#47e539"] ;
97 -> 98 ;
99 [label="gini = 0.0\nsamples = 4\nvalue = [0, 0, 4, 0]\nclass = Vigenere", fillcolor="#399de5"] ;
97 -> 99 ;
100 [label="IC <= 0.042\ngini = 0.32\nsamples = 5\nvalue = [0, 1, 4, 0]\nclass = Vigenere", fillcolor="#6ab6ec"] ;
90 -> 100 ;
101 [label="gini = 0.0\nsamples = 4\nvalue = [0, 0, 4, 0]\nclass = Vigenere", fillcolor="#399de5"] ;
100 -> 101 ;
102 [label="gini = 0.0\nsamples = 1\nvalue = [0, 1, 0, 0]\nclass = MonoalphabeticSubstitution", fillcolor="#47e539"] ;
100 -> 102 ;
103 [label="IC <= 0.043\ngini = 0.535\nsamples = 159\nvalue = [14.0, 39.0, 100.0, 6.0]\nclass = Vigenere", fillcolor="#9acdf2"] ;
1 -> 103 ;
104 [label="Text <= 830.5\ngini = 0.548\nsamples = 38\nvalue = [1, 17, 19, 1]\nclass = Vigenere", fillcolor="#ecf6fd"] ;
103 -> 104 ;
105 [label="IC <= 0.043\ngini = 0.391\nsamples = 15\nvalue = [0, 11, 4, 0]\nclass = MonoalphabeticSubstitution", fillcolor="#8aee81"] ;
104 -> 105 ;
106 [label="IC <= 0.043\ngini = 0.5\nsamples = 8\nvalue = [0, 4, 4, 0]\nclass = MonoalphabeticSubstitution", fillcolor="#ffffff"] ;
105 -> 106 ;
107 [label="gini = 0.0\nsamples = 2\nvalue = [0, 2, 0, 0]\nclass = MonoalphabeticSubstitution", fillcolor="#47e539"] ;
106 -> 107 ;
108 [label="Top9Letters <= 1713.5\ngini = 0.444\nsamples = 6\nvalue = [0, 2, 4, 0]\nclass = Vigenere", fillcolor="#9ccef2"] ;
106 -> 108 ;
109 [label="Text <= 496.0\ngini = 0.32\nsamples = 5\nvalue = [0, 1, 4, 0]\nclass = Vigenere", fillcolor="#6ab6ec"] ;
108 -> 109 ;
110 [label="gini = 0.0\nsamples = 3\nvalue = [0, 0, 3, 0]\nclass = Vigenere", fillcolor="#399de5"] ;
109 -> 110 ;
111 [label="IC <= 0.043\ngini = 0.5\nsamples = 2\nvalue = [0, 1, 1, 0]\nclass = MonoalphabeticSubstitution", fillcolor="#ffffff"] ;
109 -> 111 ;
112 [label="gini = 0.0\nsamples = 1\nvalue = [0, 1, 0, 0]\nclass = MonoalphabeticSubstitution", fillcolor="#47e539"] ;
111 -> 112 ;
113 [label="gini = 0.0\nsamples = 1\nvalue = [0, 0, 1, 0]\nclass = Vigenere", fillcolor="#399de5"] ;
111 -> 113 ;
114 [label="gini = 0.0\nsamples = 1\nvalue = [0, 1, 0, 0]\nclass = MonoalphabeticSubstitution", fillcolor="#47e539"] ;
108 -> 114 ;
115 [label="gini = 0.0\nsamples = 7\nvalue = [0, 7, 0, 0]\nclass = MonoalphabeticSubstitution", fillcolor="#47e539"] ;
105 -> 115 ;
116 [label="Text <= 1687.0\ngini = 0.503\nsamples = 23\nvalue = [1, 6, 15, 1]\nclass = Vigenere", fillcolor="#96cbf1"] ;
104 -> 116 ;
117 [label="Top5Bigrams <= 125.5\ngini = 0.377\nsamples = 18\nvalue = [1, 2, 14, 1]\nclass = Vigenere", fillcolor="#6ab6ec"] ;
116 -> 117 ;
118 [label="gini = 0.0\nsamples = 1\nvalue = [0, 1, 0, 0]\nclass = MonoalphabeticSubstitution", fillcolor="#47e539"] ;
117 -> 118 ;
119 [label="IC <= 0.043\ngini = 0.311\nsamples = 17\nvalue = [1, 1, 14, 1]\nclass = Vigenere", fillcolor="#5eafea"] ;
117 -> 119 ;
120 [label="gini = 0.0\nsamples = 1\nvalue = [0, 1, 0, 0]\nclass = MonoalphabeticSubstitution", fillcolor="#47e539"] ;
119 -> 120 ;
121 [label="IC <= 0.043\ngini = 0.227\nsamples = 16\nvalue = [1, 0, 14, 1]\nclass = Vigenere", fillcolor="#53aae8"] ;
119 -> 121 ;
122 [label="IC <= 0.043\ngini = 0.5\nsamples = 2\nvalue = [1, 0, 1, 0]\nclass = ColumnarTransposition", fillcolor="#ffffff"] ;
121 -> 122 ;
123 [label="gini = 0.0\nsamples = 1\nvalue = [0, 0, 1, 0]\nclass = Vigenere", fillcolor="#399de5"] ;
122 -> 123 ;
124 [label="gini = 0.0\nsamples = 1\nvalue = [1, 0, 0, 0]\nclass = ColumnarTransposition", fillcolor="#e58139"] ;
122 -> 124 ;
125 [label="IC <= 0.043\ngini = 0.133\nsamples = 14\nvalue = [0, 0, 13, 1]\nclass = Vigenere", fillcolor="#48a5e7"] ;
121 -> 125 ;
126 [label="IC <= 0.043\ngini = 0.375\nsamples = 4\nvalue = [0, 0, 3, 1]\nclass = Vigenere", fillcolor="#7bbeee"] ;
125 -> 126 ;
127 [label="gini = 0.0\nsamples = 3\nvalue = [0, 0, 3, 0]\nclass = Vigenere", fillcolor="#399de5"] ;
126 -> 127 ;
128 [label="gini = 0.0\nsamples = 1\nvalue = [0, 0, 0, 1]\nclass = ceaser", fillcolor="#d739e5"] ;
126 -> 128 ;
129 [label="gini = 0.0\nsamples = 10\nvalue = [0, 0, 10, 0]\nclass = Vigenere", fillcolor="#399de5"] ;
125 -> 129 ;
130 [label="Text <= 1973.5\ngini = 0.32\nsamples = 5\nvalue = [0, 4, 1, 0]\nclass = MonoalphabeticSubstitution", fillcolor="#75ec6a"] ;
116 -> 130 ;
131 [label="gini = 0.0\nsamples = 4\nvalue = [0, 4, 0, 0]\nclass = MonoalphabeticSubstitution", fillcolor="#47e539"] ;
130 -> 131 ;
132 [label="gini = 0.0\nsamples = 1\nvalue = [0, 0, 1, 0]\nclass = Vigenere", fillcolor="#399de5"] ;
130 -> 132 ;
133 [label="IC <= 0.046\ngini = 0.506\nsamples = 121\nvalue = [13, 22, 81, 5]\nclass = Vigenere", fillcolor="#89c5f0"] ;
103 -> 133 ;
134 [label="Text <= 20.5\ngini = 0.435\nsamples = 48\nvalue = [8, 3, 35, 2]\nclass = Vigenere", fillcolor="#79bded"] ;
133 -> 134 ;
135 [label="gini = 0.0\nsamples = 1\nvalue = [0, 0, 0, 1]\nclass = ceaser", fillcolor="#d739e5"] ;
134 -> 135 ;
136 [label="Top5Bigrams <= 793.0\ngini = 0.412\nsamples = 47\nvalue = [8.0, 3.0, 35.0, 1.0]\nclass = Vigenere", fillcolor="#76bbed"] ;
134 -> 136 ;
137 [label="Top5Bigrams <= 349.5\ngini = 0.554\nsamples = 17\nvalue = [5, 2, 10, 0]\nclass = Vigenere", fillcolor="#acd6f4"] ;
136 -> 137 ;
138 [label="Text <= 122.5\ngini = 0.219\nsamples = 8\nvalue = [0, 1, 7, 0]\nclass = Vigenere", fillcolor="#55abe9"] ;
137 -> 138 ;
139 [label="IC <= 0.045\ngini = 0.5\nsamples = 2\nvalue = [0, 1, 1, 0]\nclass = MonoalphabeticSubstitution", fillcolor="#ffffff"] ;
138 -> 139 ;
140 [label="gini = 0.0\nsamples = 1\nvalue = [0, 1, 0, 0]\nclass = MonoalphabeticSubstitution", fillcolor="#47e539"] ;
139 -> 140 ;
141 [label="gini = 0.0\nsamples = 1\nvalue = [0, 0, 1, 0]\nclass = Vigenere", fillcolor="#399de5"] ;
139 -> 141 ;
142 [label="gini = 0.0\nsamples = 6\nvalue = [0, 0, 6, 0]\nclass = Vigenere", fillcolor="#399de5"] ;
138 -> 142 ;
143 [label="Top5Bigrams <= 524.0\ngini = 0.568\nsamples = 9\nvalue = [5, 1, 3, 0]\nclass = ColumnarTransposition", fillcolor="#f6d5bd"] ;
137 -> 143 ;
144 [label="gini = 0.0\nsamples = 3\nvalue = [3, 0, 0, 0]\nclass = ColumnarTransposition", fillcolor="#e58139"] ;
143 -> 144 ;
145 [label="Top5Bigrams <= 704.0\ngini = 0.611\nsamples = 6\nvalue = [2, 1, 3, 0]\nclass = Vigenere", fillcolor="#cee6f8"] ;
143 -> 145 ;
146 [label="gini = 0.0\nsamples = 3\nvalue = [0, 0, 3, 0]\nclass = Vigenere", fillcolor="#399de5"] ;
145 -> 146 ;
147 [label="IC <= 0.045\ngini = 0.444\nsamples = 3\nvalue = [2, 1, 0, 0]\nclass = ColumnarTransposition", fillcolor="#f2c09c"] ;
145 -> 147 ;
148 [label="gini = 0.0\nsamples = 2\nvalue = [2, 0, 0, 0]\nclass = ColumnarTransposition", fillcolor="#e58139"] ;
147 -> 148 ;
149 [label="gini = 0.0\nsamples = 1\nvalue = [0, 1, 0, 0]\nclass = MonoalphabeticSubstitution", fillcolor="#47e539"] ;
147 -> 149 ;
150 [label="Text <= 695.5\ngini = 0.293\nsamples = 30\nvalue = [3, 1, 25, 1]\nclass = Vigenere", fillcolor="#5eafea"] ;
136 -> 150 ;
151 [label="Text <= 574.0\ngini = 0.444\nsamples = 9\nvalue = [3, 0, 6, 0]\nclass = Vigenere", fillcolor="#9ccef2"] ;
150 -> 151 ;
152 [label="gini = 0.0\nsamples = 6\nvalue = [0, 0, 6, 0]\nclass = Vigenere", fillcolor="#399de5"] ;
151 -> 152 ;
153 [label="gini = 0.0\nsamples = 3\nvalue = [3, 0, 0, 0]\nclass = ColumnarTransposition", fillcolor="#e58139"] ;
151 -> 153 ;
154 [label="IC <= 0.045\ngini = 0.177\nsamples = 21\nvalue = [0, 1, 19, 1]\nclass = Vigenere", fillcolor="#4da7e8"] ;
150 -> 154 ;
155 [label="gini = 0.0\nsamples = 14\nvalue = [0, 0, 14, 0]\nclass = Vigenere", fillcolor="#399de5"] ;
154 -> 155 ;
156 [label="IC <= 0.045\ngini = 0.449\nsamples = 7\nvalue = [0, 1, 5, 1]\nclass = Vigenere", fillcolor="#7bbeee"] ;
154 -> 156 ;
157 [label="gini = 0.0\nsamples = 1\nvalue = [0, 1, 0, 0]\nclass = MonoalphabeticSubstitution", fillcolor="#47e539"] ;
156 -> 157 ;
158 [label="IC <= 0.045\ngini = 0.278\nsamples = 6\nvalue = [0, 0, 5, 1]\nclass = Vigenere", fillcolor="#61b1ea"] ;
156 -> 158 ;
159 [label="Top9Letters <= 1703.5\ngini = 0.5\nsamples = 2\nvalue = [0, 0, 1, 1]\nclass = Vigenere", fillcolor="#ffffff"] ;
158 -> 159 ;
160 [label="gini = 0.0\nsamples = 1\nvalue = [0, 0, 0, 1]\nclass = ceaser", fillcolor="#d739e5"] ;
159 -> 160 ;
161 [label="gini = 0.0\nsamples = 1\nvalue = [0, 0, 1, 0]\nclass = Vigenere", fillcolor="#399de5"] ;
159 -> 161 ;
162 [label="gini = 0.0\nsamples = 4\nvalue = [0, 0, 4, 0]\nclass = Vigenere", fillcolor="#399de5"] ;
158 -> 162 ;
163 [label="Top5Bigrams <= 1906.5\ngini = 0.529\nsamples = 73\nvalue = [5, 19, 46, 3]\nclass = Vigenere", fillcolor="#9ccef2"] ;
133 -> 163 ;
164 [label="Top5Bigrams <= 1798.5\ngini = 0.556\nsamples = 67\nvalue = [5, 19, 40, 3]\nclass = Vigenere", fillcolor="#a8d4f4"] ;
163 -> 164 ;
165 [label="IC <= 0.046\ngini = 0.539\nsamples = 64\nvalue = [5, 16, 40, 3]\nclass = Vigenere", fillcolor="#9ccef2"] ;
164 -> 165 ;
166 [label="Top5Bigrams <= 1380.0\ngini = 0.5\nsamples = 2\nvalue = [0, 1, 0, 1]\nclass = MonoalphabeticSubstitution", fillcolor="#ffffff"] ;
165 -> 166 ;
167 [label="gini = 0.0\nsamples = 1\nvalue = [0, 0, 0, 1]\nclass = ceaser", fillcolor="#d739e5"] ;
166 -> 167 ;
168 [label="gini = 0.0\nsamples = 1\nvalue = [0, 1, 0, 0]\nclass = MonoalphabeticSubstitution", fillcolor="#47e539"] ;
166 -> 168 ;
169 [label="IC <= 0.047\ngini = 0.518\nsamples = 62\nvalue = [5, 15, 40, 2]\nclass = Vigenere", fillcolor="#96cbf1"] ;
165 -> 169 ;
170 [label="IC <= 0.047\ngini = 0.475\nsamples = 54\nvalue = [4, 12, 37, 1]\nclass = Vigenere", fillcolor="#89c5f0"] ;
169 -> 170 ;
171 [label="IC <= 0.047\ngini = 0.52\nsamples = 47\nvalue = [4.0, 12.0, 30.0, 1.0]\nclass = Vigenere", fillcolor="#99cdf2"] ;
170 -> 171 ;
172 [label="Top9Letters <= 1773.5\ngini = 0.492\nsamples = 43\nvalue = [4, 9, 29, 1]\nclass = Vigenere", fillcolor="#8bc5f0"] ;
171 -> 172 ;
173 [label="Top9Letters <= 1066.0\ngini = 0.477\nsamples = 42\nvalue = [4, 8, 29, 1]\nclass = Vigenere", fillcolor="#85c2ef"] ;
172 -> 173 ;
174 [label="IC <= 0.047\ngini = 0.497\nsamples = 26\nvalue = [1, 7, 17, 1]\nclass = Vigenere", fillcolor="#97cbf1"] ;
173 -> 174 ;
175 [label="IC <= 0.046\ngini = 0.381\nsamples = 17\nvalue = [0, 3, 13, 1]\nclass = Vigenere", fillcolor="#72b9ec"] ;
174 -> 175 ;
176 [label="Text <= 917.5\ngini = 0.54\nsamples = 10\nvalue = [0, 3, 6, 1]\nclass = Vigenere", fillcolor="#aad5f4"] ;
175 -> 176 ;
177 [label="IC <= 0.046\ngini = 0.245\nsamples = 7\nvalue = [0, 1, 6, 0]\nclass = Vigenere", fillcolor="#5aade9"] ;
176 -> 177 ;
178 [label="gini = 0.0\nsamples = 6\nvalue = [0, 0, 6, 0]\nclass = Vigenere", fillcolor="#399de5"] ;
177 -> 178 ;
179 [label="gini = 0.0\nsamples = 1\nvalue = [0, 1, 0, 0]\nclass = MonoalphabeticSubstitution", fillcolor="#47e539"] ;
177 -> 179 ;
180 [label="Text <= 1129.5\ngini = 0.444\nsamples = 3\nvalue = [0, 2, 0, 1]\nclass = MonoalphabeticSubstitution", fillcolor="#a3f29c"] ;
176 -> 180 ;
181 [label="gini = 0.0\nsamples = 1\nvalue = [0, 0, 0, 1]\nclass = ceaser", fillcolor="#d739e5"] ;
180 -> 181 ;
182 [label="gini = 0.0\nsamples = 2\nvalue = [0, 2, 0, 0]\nclass = MonoalphabeticSubstitution", fillcolor="#47e539"] ;
180 -> 182 ;
183 [label="gini = 0.0\nsamples = 7\nvalue = [0, 0, 7, 0]\nclass = Vigenere", fillcolor="#399de5"] ;
175 -> 183 ;
184 [label="IC <= 0.047\ngini = 0.593\nsamples = 9\nvalue = [1, 4, 4, 0]\nclass = MonoalphabeticSubstitution", fillcolor="#ffffff"] ;
174 -> 184 ;
185 [label="gini = 0.0\nsamples = 4\nvalue = [0, 4, 0, 0]\nclass = MonoalphabeticSubstitution", fillcolor="#47e539"] ;
184 -> 185 ;
186 [label="Top5Bigrams <= 486.5\ngini = 0.32\nsamples = 5\nvalue = [1, 0, 4, 0]\nclass = Vigenere", fillcolor="#6ab6ec"] ;
184 -> 186 ;
187 [label="IC <= 0.047\ngini = 0.5\nsamples = 2\nvalue = [1, 0, 1, 0]\nclass = ColumnarTransposition", fillcolor="#ffffff"] ;
186 -> 187 ;
188 [label="gini = 0.0\nsamples = 1\nvalue = [0, 0, 1, 0]\nclass = Vigenere", fillcolor="#399de5"] ;
187 -> 188 ;
189 [label="gini = 0.0\nsamples = 1\nvalue = [1, 0, 0, 0]\nclass = ColumnarTransposition", fillcolor="#e58139"] ;
187 -> 189 ;
190 [label="gini = 0.0\nsamples = 3\nvalue = [0, 0, 3, 0]\nclass = Vigenere", fillcolor="#399de5"] ;
186 -> 190 ;
191 [label="Top5Bigrams <= 1171.5\ngini = 0.398\nsamples = 16\nvalue = [3, 1, 12, 0]\nclass = Vigenere", fillcolor="#76bbed"] ;
173 -> 191 ;
192 [label="Top5Bigrams <= 1086.0\ngini = 0.444\nsamples = 3\nvalue = [2, 0, 1, 0]\nclass = ColumnarTransposition", fillcolor="#f2c09c"] ;
191 -> 192 ;
193 [label="gini = 0.0\nsamples = 1\nvalue = [0, 0, 1, 0]\nclass = Vigenere", fillcolor="#399de5"] ;
192 -> 193 ;
194 [label="gini = 0.0\nsamples = 2\nvalue = [2, 0, 0, 0]\nclass = ColumnarTransposition", fillcolor="#e58139"] ;
192 -> 194 ;
195 [label="IC <= 0.047\ngini = 0.272\nsamples = 13\nvalue = [1, 1, 11, 0]\nclass = Vigenere", fillcolor="#5aade9"] ;
191 -> 195 ;
196 [label="IC <= 0.046\ngini = 0.165\nsamples = 11\nvalue = [1, 0, 10, 0]\nclass = Vigenere", fillcolor="#4da7e8"] ;
195 -> 196 ;
197 [label="Text <= 1430.5\ngini = 0.444\nsamples = 3\nvalue = [1, 0, 2, 0]\nclass = Vigenere", fillcolor="#9ccef2"] ;
196 -> 197 ;
198 [label="gini = 0.0\nsamples = 1\nvalue = [1, 0, 0, 0]\nclass = ColumnarTransposition", fillcolor="#e58139"] ;
197 -> 198 ;
199 [label="gini = 0.0\nsamples = 2\nvalue = [0, 0, 2, 0]\nclass = Vigenere", fillcolor="#399de5"] ;
197 -> 199 ;
200 [label="gini = 0.0\nsamples = 8\nvalue = [0, 0, 8, 0]\nclass = Vigenere", fillcolor="#399de5"] ;
196 -> 200 ;
201 [label="Top9Letters <= 1590.0\ngini = 0.5\nsamples = 2\nvalue = [0, 1, 1, 0]\nclass = MonoalphabeticSubstitution", fillcolor="#ffffff"] ;
195 -> 201 ;
202 [label="gini = 0.0\nsamples = 1\nvalue = [0, 1, 0, 0]\nclass = MonoalphabeticSubstitution", fillcolor="#47e539"] ;
201 -> 202 ;
203 [label="gini = 0.0\nsamples = 1\nvalue = [0, 0, 1, 0]\nclass = Vigenere", fillcolor="#399de5"] ;
201 -> 203 ;
204 [label="gini = 0.0\nsamples = 1\nvalue = [0, 1, 0, 0]\nclass = MonoalphabeticSubstitution", fillcolor="#47e539"] ;
172 -> 204 ;
205 [label="Text <= 714.5\ngini = 0.375\nsamples = 4\nvalue = [0, 3, 1, 0]\nclass = MonoalphabeticSubstitution", fillcolor="#84ee7b"] ;
171 -> 205 ;
206 [label="Text <= 608.0\ngini = 0.5\nsamples = 2\nvalue = [0, 1, 1, 0]\nclass = MonoalphabeticSubstitution", fillcolor="#ffffff"] ;
205 -> 206 ;
207 [label="gini = 0.0\nsamples = 1\nvalue = [0, 1, 0, 0]\nclass = MonoalphabeticSubstitution", fillcolor="#47e539"] ;
206 -> 207 ;
208 [label="gini = 0.0\nsamples = 1\nvalue = [0, 0, 1, 0]\nclass = Vigenere", fillcolor="#399de5"] ;
206 -> 208 ;
209 [label="gini = 0.0\nsamples = 2\nvalue = [0, 2, 0, 0]\nclass = MonoalphabeticSubstitution", fillcolor="#47e539"] ;
205 -> 209 ;
210 [label="gini = 0.0\nsamples = 7\nvalue = [0, 0, 7, 0]\nclass = Vigenere", fillcolor="#399de5"] ;
170 -> 210 ;
211 [label="IC <= 0.047\ngini = 0.688\nsamples = 8\nvalue = [1, 3, 3, 1]\nclass = MonoalphabeticSubstitution", fillcolor="#ffffff"] ;
169 -> 211 ;
212 [label="Text <= 887.0\ngini = 0.625\nsamples = 4\nvalue = [1, 2, 0, 1]\nclass = MonoalphabeticSubstitution", fillcolor="#c2f6bd"] ;
211 -> 212 ;
213 [label="gini = 0.0\nsamples = 2\nvalue = [0, 2, 0, 0]\nclass = MonoalphabeticSubstitution", fillcolor="#47e539"] ;
212 -> 213 ;
214 [label="Text <= 1715.0\ngini = 0.5\nsamples = 2\nvalue = [1, 0, 0, 1]\nclass = ColumnarTransposition", fillcolor="#ffffff"] ;
212 -> 214 ;
215 [label="gini = 0.0\nsamples = 1\nvalue = [1, 0, 0, 0]\nclass = ColumnarTransposition", fillcolor="#e58139"] ;
214 -> 215 ;
216 [label="gini = 0.0\nsamples = 1\nvalue = [0, 0, 0, 1]\nclass = ceaser", fillcolor="#d739e5"] ;
214 -> 216 ;
217 [label="Top5Bigrams <= 436.5\ngini = 0.375\nsamples = 4\nvalue = [0, 1, 3, 0]\nclass = Vigenere", fillcolor="#7bbeee"] ;
211 -> 217 ;
218 [label="gini = 0.0\nsamples = 1\nvalue = [0, 1, 0, 0]\nclass = MonoalphabeticSubstitution", fillcolor="#47e539"] ;
217 -> 218 ;
219 [label="gini = 0.0\nsamples = 3\nvalue = [0, 0, 3, 0]\nclass = Vigenere", fillcolor="#399de5"] ;
217 -> 219 ;
220 [label="gini = 0.0\nsamples = 3\nvalue = [0, 3, 0, 0]\nclass = MonoalphabeticSubstitution", fillcolor="#47e539"] ;
164 -> 220 ;
221 [label="gini = 0.0\nsamples = 6\nvalue = [0, 0, 6, 0]\nclass = Vigenere", fillcolor="#399de5"] ;
163 -> 221 ;
222 [label="Top5Bigrams <= 580.0\ngini = 0.7\nsamples = 1600\nvalue = [523.0, 494.0, 90.0, 493.0]\nclass = ColumnarTransposition", fillcolor="#fefcfa"] ;
0 -> 222 [labeldistance=2.5, labelangle=-45, headlabel="False"] ;
223 [label="Top9Letters <= 279.5\ngini = 0.598\nsamples = 499\nvalue = [282, 102, 15, 100]\nclass = ColumnarTransposition", fillcolor="#f3c6a5"] ;
222 -> 223 ;
224 [label="Top5Bigrams <= 94.5\ngini = 0.683\nsamples = 217\nvalue = [46, 77, 12, 82]\nclass = ceaser", fillcolor="#fef8fe"] ;
223 -> 224 ;
225 [label="Text <= 499.5\ngini = 0.577\nsamples = 77\nvalue = [43, 9, 1, 24]\nclass = ColumnarTransposition", fillcolor="#f6d2b8"] ;
224 -> 225 ;
226 [label="Text <= 310.0\ngini = 0.569\nsamples = 44\nvalue = [17, 4, 0, 23]\nclass = ceaser", fillcolor="#f6d3f9"] ;
225 -> 226 ;
227 [label="Text <= 29.5\ngini = 0.497\nsamples = 24\nvalue = [16, 3, 0, 5]\nclass = ColumnarTransposition", fillcolor="#f0b68c"] ;
226 -> 227 ;
228 [label="gini = 0.0\nsamples = 5\nvalue = [0, 0, 0, 5]\nclass = ceaser", fillcolor="#d739e5"] ;
227 -> 228 ;
229 [label="IC <= 0.069\ngini = 0.266\nsamples = 19\nvalue = [16, 3, 0, 0]\nclass = ColumnarTransposition", fillcolor="#ea995e"] ;
227 -> 229 ;
230 [label="Top9Letters <= 7.5\ngini = 0.117\nsamples = 16\nvalue = [15, 1, 0, 0]\nclass = ColumnarTransposition", fillcolor="#e78946"] ;
229 -> 230 ;
231 [label="gini = 0.0\nsamples = 1\nvalue = [0, 1, 0, 0]\nclass = MonoalphabeticSubstitution", fillcolor="#47e539"] ;
230 -> 231 ;
232 [label="gini = 0.0\nsamples = 15\nvalue = [15, 0, 0, 0]\nclass = ColumnarTransposition", fillcolor="#e58139"] ;
230 -> 232 ;
233 [label="Text <= 74.5\ngini = 0.444\nsamples = 3\nvalue = [1, 2, 0, 0]\nclass = MonoalphabeticSubstitution", fillcolor="#a3f29c"] ;
229 -> 233 ;
234 [label="gini = 0.0\nsamples = 2\nvalue = [0, 2, 0, 0]\nclass = MonoalphabeticSubstitution", fillcolor="#47e539"] ;
233 -> 234 ;
235 [label="gini = 0.0\nsamples = 1\nvalue = [1, 0, 0, 0]\nclass = ColumnarTransposition", fillcolor="#e58139"] ;
233 -> 235 ;
236 [label="Top5Bigrams <= 84.5\ngini = 0.185\nsamples = 20\nvalue = [1, 1, 0, 18]\nclass = ceaser", fillcolor="#db4ee8"] ;
226 -> 236 ;
237 [label="IC <= 0.05\ngini = 0.1\nsamples = 19\nvalue = [1, 0, 0, 18]\nclass = ceaser", fillcolor="#d944e6"] ;
236 -> 237 ;
238 [label="gini = 0.0\nsamples = 1\nvalue = [1, 0, 0, 0]\nclass = ColumnarTransposition", fillcolor="#e58139"] ;
237 -> 238 ;
239 [label="gini = 0.0\nsamples = 18\nvalue = [0, 0, 0, 18]\nclass = ceaser", fillcolor="#d739e5"] ;
237 -> 239 ;
240 [label="gini = 0.0\nsamples = 1\nvalue = [0, 1, 0, 0]\nclass = MonoalphabeticSubstitution", fillcolor="#47e539"] ;
236 -> 240 ;
241 [label="Top5Bigrams <= 4.0\ngini = 0.354\nsamples = 33\nvalue = [26, 5, 1, 1]\nclass = ColumnarTransposition", fillcolor="#eca06a"] ;
225 -> 241 ;
242 [label="IC <= 0.051\ngini = 0.5\nsamples = 2\nvalue = [0, 1, 1, 0]\nclass = MonoalphabeticSubstitution", fillcolor="#ffffff"] ;
241 -> 242 ;
243 [label="gini = 0.0\nsamples = 1\nvalue = [0, 1, 0, 0]\nclass = MonoalphabeticSubstitution", fillcolor="#47e539"] ;
242 -> 243 ;
244 [label="gini = 0.0\nsamples = 1\nvalue = [0, 0, 1, 0]\nclass = Vigenere", fillcolor="#399de5"] ;
242 -> 244 ;
245 [label="IC <= 0.061\ngini = 0.279\nsamples = 31\nvalue = [26, 4, 0, 1]\nclass = ColumnarTransposition", fillcolor="#ea985e"] ;
241 -> 245 ;
246 [label="gini = 0.0\nsamples = 17\nvalue = [17, 0, 0, 0]\nclass = ColumnarTransposition", fillcolor="#e58139"] ;
245 -> 246 ;
247 [label="IC <= 0.062\ngini = 0.5\nsamples = 14\nvalue = [9, 4, 0, 1]\nclass = ColumnarTransposition", fillcolor="#f2c09c"] ;
245 -> 247 ;
248 [label="gini = 0.0\nsamples = 2\nvalue = [0, 2, 0, 0]\nclass = MonoalphabeticSubstitution", fillcolor="#47e539"] ;
247 -> 248 ;
249 [label="IC <= 0.078\ngini = 0.403\nsamples = 12\nvalue = [9, 2, 0, 1]\nclass = ColumnarTransposition", fillcolor="#eda774"] ;
247 -> 249 ;
250 [label="IC <= 0.063\ngini = 0.314\nsamples = 11\nvalue = [9, 1, 0, 1]\nclass = ColumnarTransposition", fillcolor="#ea9a61"] ;
249 -> 250 ;
251 [label="Top5Bigrams <= 34.0\ngini = 0.5\nsamples = 2\nvalue = [1, 0, 0, 1]\nclass = ColumnarTransposition", fillcolor="#ffffff"] ;
250 -> 251 ;
252 [label="gini = 0.0\nsamples = 1\nvalue = [1, 0, 0, 0]\nclass = ColumnarTransposition", fillcolor="#e58139"] ;
251 -> 252 ;
253 [label="gini = 0.0\nsamples = 1\nvalue = [0, 0, 0, 1]\nclass = ceaser", fillcolor="#d739e5"] ;
251 -> 253 ;
254 [label="Text <= 1591.0\ngini = 0.198\nsamples = 9\nvalue = [8, 1, 0, 0]\nclass = ColumnarTransposition", fillcolor="#e89152"] ;
250 -> 254 ;
255 [label="gini = 0.0\nsamples = 7\nvalue = [7, 0, 0, 0]\nclass = ColumnarTransposition", fillcolor="#e58139"] ;
254 -> 255 ;
256 [label="IC <= 0.072\ngini = 0.5\nsamples = 2\nvalue = [1, 1, 0, 0]\nclass = ColumnarTransposition", fillcolor="#ffffff"] ;
254 -> 256 ;
257 [label="gini = 0.0\nsamples = 1\nvalue = [0, 1, 0, 0]\nclass = MonoalphabeticSubstitution", fillcolor="#47e539"] ;
256 -> 257 ;
258 [label="gini = 0.0\nsamples = 1\nvalue = [1, 0, 0, 0]\nclass = ColumnarTransposition", fillcolor="#e58139"] ;
256 -> 258 ;
259 [label="gini = 0.0\nsamples = 1\nvalue = [0, 1, 0, 0]\nclass = MonoalphabeticSubstitution", fillcolor="#47e539"] ;
249 -> 259 ;
260 [label="Text <= 672.5\ngini = 0.586\nsamples = 140\nvalue = [3.0, 68.0, 11.0, 58.0]\nclass = MonoalphabeticSubstitution", fillcolor="#e9fce7"] ;
224 -> 260 ;
261 [label="Text <= 444.0\ngini = 0.543\nsamples = 78\nvalue = [2, 23, 6, 47]\nclass = ceaser", fillcolor="#eea9f4"] ;
260 -> 261 ;
262 [label="Text <= 128.5\ngini = 0.582\nsamples = 33\nvalue = [2, 19, 3, 9]\nclass = MonoalphabeticSubstitution", fillcolor="#b2f4ac"] ;
261 -> 262 ;
263 [label="Text <= 70.0\ngini = 0.245\nsamples = 7\nvalue = [0, 1, 0, 6]\nclass = ceaser", fillcolor="#de5ae9"] ;
262 -> 263 ;
264 [label="gini = 0.0\nsamples = 1\nvalue = [0, 1, 0, 0]\nclass = MonoalphabeticSubstitution", fillcolor="#47e539"] ;
263 -> 264 ;
265 [label="gini = 0.0\nsamples = 6\nvalue = [0, 0, 0, 6]\nclass = ceaser", fillcolor="#d739e5"] ;
263 -> 265 ;
266 [label="Top5Bigrams <= 210.0\ngini = 0.488\nsamples = 26\nvalue = [2, 18, 3, 3]\nclass = MonoalphabeticSubstitution", fillcolor="#87ee7e"] ;
262 -> 266 ;
267 [label="Text <= 214.5\ngini = 0.231\nsamples = 15\nvalue = [0, 13, 2, 0]\nclass = MonoalphabeticSubstitution", fillcolor="#63e957"] ;
266 -> 267 ;
268 [label="gini = 0.0\nsamples = 6\nvalue = [0, 6, 0, 0]\nclass = MonoalphabeticSubstitution", fillcolor="#47e539"] ;
267 -> 268 ;
269 [label="IC <= 0.066\ngini = 0.346\nsamples = 9\nvalue = [0, 7, 2, 0]\nclass = MonoalphabeticSubstitution", fillcolor="#7cec72"] ;
267 -> 269 ;
270 [label="Top9Letters <= 146.5\ngini = 0.219\nsamples = 8\nvalue = [0, 7, 1, 0]\nclass = MonoalphabeticSubstitution", fillcolor="#61e955"] ;
269 -> 270 ;
271 [label="Top9Letters <= 132.5\ngini = 0.444\nsamples = 3\nvalue = [0, 2, 1, 0]\nclass = MonoalphabeticSubstitution", fillcolor="#a3f29c"] ;
270 -> 271 ;
272 [label="gini = 0.0\nsamples = 2\nvalue = [0, 2, 0, 0]\nclass = MonoalphabeticSubstitution", fillcolor="#47e539"] ;
271 -> 272 ;
273 [label="gini = 0.0\nsamples = 1\nvalue = [0, 0, 1, 0]\nclass = Vigenere", fillcolor="#399de5"] ;
271 -> 273 ;
274 [label="gini = 0.0\nsamples = 5\nvalue = [0, 5, 0, 0]\nclass = MonoalphabeticSubstitution", fillcolor="#47e539"] ;
270 -> 274 ;
275 [label="gini = 0.0\nsamples = 1\nvalue = [0, 0, 1, 0]\nclass = Vigenere", fillcolor="#399de5"] ;
269 -> 275 ;
276 [label="Text <= 288.5\ngini = 0.678\nsamples = 11\nvalue = [2, 5, 1, 3]\nclass = MonoalphabeticSubstitution", fillcolor="#d1f8ce"] ;
266 -> 276 ;
277 [label="Text <= 257.0\ngini = 0.611\nsamples = 6\nvalue = [2, 1, 0, 3]\nclass = ceaser", fillcolor="#f5cef8"] ;
276 -> 277 ;
278 [label="Text <= 178.5\ngini = 0.375\nsamples = 4\nvalue = [0, 1, 0, 3]\nclass = ceaser", fillcolor="#e47bee"] ;
277 -> 278 ;
279 [label="gini = 0.0\nsamples = 1\nvalue = [0, 1, 0, 0]\nclass = MonoalphabeticSubstitution", fillcolor="#47e539"] ;
278 -> 279 ;
280 [label="gini = 0.0\nsamples = 3\nvalue = [0, 0, 0, 3]\nclass = ceaser", fillcolor="#d739e5"] ;
278 -> 280 ;
281 [label="gini = 0.0\nsamples = 2\nvalue = [2, 0, 0, 0]\nclass = ColumnarTransposition", fillcolor="#e58139"] ;
277 -> 281 ;
282 [label="Text <= 319.0\ngini = 0.32\nsamples = 5\nvalue = [0, 4, 1, 0]\nclass = MonoalphabeticSubstitution", fillcolor="#75ec6a"] ;
276 -> 282 ;
283 [label="gini = 0.0\nsamples = 4\nvalue = [0, 4, 0, 0]\nclass = MonoalphabeticSubstitution", fillcolor="#47e539"] ;
282 -> 283 ;
284 [label="gini = 0.0\nsamples = 1\nvalue = [0, 0, 1, 0]\nclass = Vigenere", fillcolor="#399de5"] ;
282 -> 284 ;
285 [label="IC <= 0.05\ngini = 0.275\nsamples = 45\nvalue = [0, 4, 3, 38]\nclass = ceaser", fillcolor="#de5be9"] ;
261 -> 285 ;
286 [label="Top9Letters <= 245.0\ngini = 0.444\nsamples = 3\nvalue = [0, 0, 2, 1]\nclass = Vigenere", fillcolor="#9ccef2"] ;
285 -> 286 ;
287 [label="gini = 0.0\nsamples = 2\nvalue = [0, 0, 2, 0]\nclass = Vigenere", fillcolor="#399de5"] ;
286 -> 287 ;
288 [label="gini = 0.0\nsamples = 1\nvalue = [0, 0, 0, 1]\nclass = ceaser", fillcolor="#d739e5"] ;
286 -> 288 ;
289 [label="IC <= 0.084\ngini = 0.214\nsamples = 42\nvalue = [0, 4, 1, 37]\nclass = ceaser", fillcolor="#dc53e8"] ;
285 -> 289 ;
290 [label="IC <= 0.052\ngini = 0.18\nsamples = 41\nvalue = [0, 3, 1, 37]\nclass = ceaser", fillcolor="#db4ee8"] ;
289 -> 290 ;
291 [label="IC <= 0.052\ngini = 0.5\nsamples = 2\nvalue = [0, 1, 0, 1]\nclass = MonoalphabeticSubstitution", fillcolor="#ffffff"] ;
290 -> 291 ;
292 [label="gini = 0.0\nsamples = 1\nvalue = [0, 0, 0, 1]\nclass = ceaser", fillcolor="#d739e5"] ;
291 -> 292 ;
293 [label="gini = 0.0\nsamples = 1\nvalue = [0, 1, 0, 0]\nclass = MonoalphabeticSubstitution", fillcolor="#47e539"] ;
291 -> 293 ;
294 [label="Text <= 489.0\ngini = 0.145\nsamples = 39\nvalue = [0, 2, 1, 36]\nclass = ceaser", fillcolor="#da49e7"] ;
290 -> 294 ;
295 [label="Text <= 464.0\ngini = 0.32\nsamples = 10\nvalue = [0, 2, 0, 8]\nclass = ceaser", fillcolor="#e16aec"] ;
294 -> 295 ;
296 [label="gini = 0.0\nsamples = 8\nvalue = [0, 0, 0, 8]\nclass = ceaser", fillcolor="#d739e5"] ;
295 -> 296 ;
297 [label="gini = 0.0\nsamples = 2\nvalue = [0, 2, 0, 0]\nclass = MonoalphabeticSubstitution", fillcolor="#47e539"] ;
295 -> 297 ;
298 [label="IC <= 0.057\ngini = 0.067\nsamples = 29\nvalue = [0, 0, 1, 28]\nclass = ceaser", fillcolor="#d840e6"] ;
294 -> 298 ;
299 [label="Top5Bigrams <= 243.5\ngini = 0.375\nsamples = 4\nvalue = [0, 0, 1, 3]\nclass = ceaser", fillcolor="#e47bee"] ;
298 -> 299 ;
300 [label="gini = 0.0\nsamples = 3\nvalue = [0, 0, 0, 3]\nclass = ceaser", fillcolor="#d739e5"] ;
299 -> 300 ;
301 [label="gini = 0.0\nsamples = 1\nvalue = [0, 0, 1, 0]\nclass = Vigenere", fillcolor="#399de5"] ;
299 -> 301 ;
302 [label="gini = 0.0\nsamples = 25\nvalue = [0, 0, 0, 25]\nclass = ceaser", fillcolor="#d739e5"] ;
298 -> 302 ;
303 [label="gini = 0.0\nsamples = 1\nvalue = [0, 1, 0, 0]\nclass = MonoalphabeticSubstitution", fillcolor="#47e539"] ;
289 -> 303 ;
304 [label="IC <= 0.05\ngini = 0.435\nsamples = 62\nvalue = [1, 45, 5, 11]\nclass = MonoalphabeticSubstitution", fillcolor="#84ee7b"] ;
260 -> 304 ;
305 [label="Top9Letters <= 119.0\ngini = 0.56\nsamples = 5\nvalue = [0, 1, 3, 1]\nclass = Vigenere", fillcolor="#9ccef2"] ;
304 -> 305 ;
306 [label="gini = 0.0\nsamples = 1\nvalue = [0, 0, 0, 1]\nclass = ceaser", fillcolor="#d739e5"] ;
305 -> 306 ;
307 [label="Top5Bigrams <= 219.0\ngini = 0.375\nsamples = 4\nvalue = [0, 1, 3, 0]\nclass = Vigenere", fillcolor="#7bbeee"] ;
305 -> 307 ;
308 [label="gini = 0.0\nsamples = 3\nvalue = [0, 0, 3, 0]\nclass = Vigenere", fillcolor="#399de5"] ;
307 -> 308 ;
309 [label="gini = 0.0\nsamples = 1\nvalue = [0, 1, 0, 0]\nclass = MonoalphabeticSubstitution", fillcolor="#47e539"] ;
307 -> 309 ;
310 [label="IC <= 0.061\ngini = 0.372\nsamples = 57\nvalue = [1, 44, 2, 10]\nclass = MonoalphabeticSubstitution", fillcolor="#7aec70"] ;
304 -> 310 ;
311 [label="IC <= 0.058\ngini = 0.18\nsamples = 20\nvalue = [0, 18, 2, 0]\nclass = MonoalphabeticSubstitution", fillcolor="#5be84f"] ;
310 -> 311 ;
312 [label="gini = 0.0\nsamples = 14\nvalue = [0, 14, 0, 0]\nclass = MonoalphabeticSubstitution", fillcolor="#47e539"] ;
311 -> 312 ;
313 [label="IC <= 0.059\ngini = 0.444\nsamples = 6\nvalue = [0, 4, 2, 0]\nclass = MonoalphabeticSubstitution", fillcolor="#a3f29c"] ;
311 -> 313 ;
314 [label="gini = 0.0\nsamples = 2\nvalue = [0, 0, 2, 0]\nclass = Vigenere", fillcolor="#399de5"] ;
313 -> 314 ;
315 [label="gini = 0.0\nsamples = 4\nvalue = [0, 4, 0, 0]\nclass = MonoalphabeticSubstitution", fillcolor="#47e539"] ;
313 -> 315 ;
316 [label="IC <= 0.062\ngini = 0.432\nsamples = 37\nvalue = [1, 26, 0, 10]\nclass = MonoalphabeticSubstitution", fillcolor="#92f08a"] ;
310 -> 316 ;
317 [label="Text <= 1421.5\ngini = 0.375\nsamples = 4\nvalue = [0, 1, 0, 3]\nclass = ceaser", fillcolor="#e47bee"] ;
316 -> 317 ;
318 [label="gini = 0.0\nsamples = 1\nvalue = [0, 1, 0, 0]\nclass = MonoalphabeticSubstitution", fillcolor="#47e539"] ;
317 -> 318 ;
319 [label="gini = 0.0\nsamples = 3\nvalue = [0, 0, 0, 3]\nclass = ceaser", fillcolor="#d739e5"] ;
317 -> 319 ;
320 [label="Top5Bigrams <= 247.5\ngini = 0.38\nsamples = 33\nvalue = [1, 25, 0, 7]\nclass = MonoalphabeticSubstitution", fillcolor="#80ed76"] ;
316 -> 320 ;
321 [label="Text <= 827.5\ngini = 0.269\nsamples = 26\nvalue = [1, 22, 0, 3]\nclass = MonoalphabeticSubstitution", fillcolor="#67ea5b"] ;
320 -> 321 ;
322 [label="gini = 0.0\nsamples = 1\nvalue = [0, 0, 0, 1]\nclass = ceaser", fillcolor="#d739e5"] ;
321 -> 322 ;
323 [label="Text <= 2018.0\ngini = 0.218\nsamples = 25\nvalue = [1, 22, 0, 2]\nclass = MonoalphabeticSubstitution", fillcolor="#5fe853"] ;
321 -> 323 ;
324 [label="Top5Bigrams <= 180.5\ngini = 0.163\nsamples = 23\nvalue = [1, 21, 0, 1]\nclass = MonoalphabeticSubstitution", fillcolor="#58e74b"] ;
323 -> 324 ;
325 [label="gini = 0.0\nsamples = 13\nvalue = [0, 13, 0, 0]\nclass = MonoalphabeticSubstitution", fillcolor="#47e539"] ;
324 -> 325 ;
326 [label="Top5Bigrams <= 189.5\ngini = 0.34\nsamples = 10\nvalue = [1, 8, 0, 1]\nclass = MonoalphabeticSubstitution", fillcolor="#70eb65"] ;
324 -> 326 ;
327 [label="gini = 0.0\nsamples = 1\nvalue = [0, 0, 0, 1]\nclass = ceaser", fillcolor="#d739e5"] ;
326 -> 327 ;
328 [label="Text <= 1483.0\ngini = 0.198\nsamples = 9\nvalue = [1, 8, 0, 0]\nclass = MonoalphabeticSubstitution", fillcolor="#5ee852"] ;
326 -> 328 ;
329 [label="gini = 0.0\nsamples = 5\nvalue = [0, 5, 0, 0]\nclass = MonoalphabeticSubstitution", fillcolor="#47e539"] ;
328 -> 329 ;
330 [label="Text <= 1571.5\ngini = 0.375\nsamples = 4\nvalue = [1, 3, 0, 0]\nclass = MonoalphabeticSubstitution", fillcolor="#84ee7b"] ;
328 -> 330 ;
331 [label="gini = 0.0\nsamples = 1\nvalue = [1, 0, 0, 0]\nclass = ColumnarTransposition", fillcolor="#e58139"] ;
330 -> 331 ;
332 [label="gini = 0.0\nsamples = 3\nvalue = [0, 3, 0, 0]\nclass = MonoalphabeticSubstitution", fillcolor="#47e539"] ;
330 -> 332 ;
333 [label="Top5Bigrams <= 184.5\ngini = 0.5\nsamples = 2\nvalue = [0, 1, 0, 1]\nclass = MonoalphabeticSubstitution", fillcolor="#ffffff"] ;
323 -> 333 ;
334 [label="gini = 0.0\nsamples = 1\nvalue = [0, 0, 0, 1]\nclass = ceaser", fillcolor="#d739e5"] ;
333 -> 334 ;
335 [label="gini = 0.0\nsamples = 1\nvalue = [0, 1, 0, 0]\nclass = MonoalphabeticSubstitution", fillcolor="#47e539"] ;
333 -> 335 ;
336 [label="Top9Letters <= 265.5\ngini = 0.49\nsamples = 7\nvalue = [0, 3, 0, 4]\nclass = ceaser", fillcolor="#f5cef8"] ;
320 -> 336 ;
337 [label="gini = 0.0\nsamples = 4\nvalue = [0, 0, 0, 4]\nclass = ceaser", fillcolor="#d739e5"] ;
336 -> 337 ;
338 [label="gini = 0.0\nsamples = 3\nvalue = [0, 3, 0, 0]\nclass = MonoalphabeticSubstitution", fillcolor="#47e539"] ;
336 -> 338 ;
339 [label="Text <= 1963.5\ngini = 0.288\nsamples = 282\nvalue = [236, 25, 3, 18]\nclass = ColumnarTransposition", fillcolor="#ea985c"] ;
223 -> 339 ;
340 [label="Top9Letters <= 433.5\ngini = 0.27\nsamples = 277\nvalue = [235, 21, 3, 18]\nclass = ColumnarTransposition", fillcolor="#e99659"] ;
339 -> 340 ;
341 [label="Top5Bigrams <= 424.5\ngini = 0.362\nsamples = 135\nvalue = [106, 17, 2, 10]\nclass = ColumnarTransposition", fillcolor="#eba06a"] ;
340 -> 341 ;
342 [label="Text <= 1749.5\ngini = 0.313\nsamples = 128\nvalue = [105, 13, 2, 8]\nclass = ColumnarTransposition", fillcolor="#ea9a61"] ;
341 -> 342 ;
343 [label="Top5Bigrams <= 395.0\ngini = 0.288\nsamples = 123\nvalue = [103, 10, 2, 8]\nclass = ColumnarTransposition", fillcolor="#ea975c"] ;
342 -> 343 ;
344 [label="Top5Bigrams <= 390.5\ngini = 0.355\nsamples = 96\nvalue = [76, 10, 2, 8]\nclass = ColumnarTransposition", fillcolor="#eb9e67"] ;
343 -> 344 ;
345 [label="Text <= 649.0\ngini = 0.331\nsamples = 94\nvalue = [76, 9, 2, 7]\nclass = ColumnarTransposition", fillcolor="#eb9c63"] ;
344 -> 345 ;
346 [label="IC <= 0.065\ngini = 0.142\nsamples = 39\nvalue = [36, 3, 0, 0]\nclass = ColumnarTransposition", fillcolor="#e78c49"] ;
345 -> 346 ;
347 [label="gini = 0.0\nsamples = 21\nvalue = [21, 0, 0, 0]\nclass = ColumnarTransposition", fillcolor="#e58139"] ;
346 -> 347 ;
348 [label="IC <= 0.065\ngini = 0.278\nsamples = 18\nvalue = [15, 3, 0, 0]\nclass = ColumnarTransposition", fillcolor="#ea9a61"] ;
346 -> 348 ;
349 [label="gini = 0.0\nsamples = 1\nvalue = [0, 1, 0, 0]\nclass = MonoalphabeticSubstitution", fillcolor="#47e539"] ;
348 -> 349 ;
350 [label="Text <= 239.5\ngini = 0.208\nsamples = 17\nvalue = [15, 2, 0, 0]\nclass = ColumnarTransposition", fillcolor="#e89253"] ;
348 -> 350 ;
351 [label="Text <= 123.5\ngini = 0.5\nsamples = 4\nvalue = [2, 2, 0, 0]\nclass = ColumnarTransposition", fillcolor="#ffffff"] ;
350 -> 351 ;
352 [label="gini = 0.0\nsamples = 2\nvalue = [2, 0, 0, 0]\nclass = ColumnarTransposition", fillcolor="#e58139"] ;
351 -> 352 ;
353 [label="gini = 0.0\nsamples = 2\nvalue = [0, 2, 0, 0]\nclass = MonoalphabeticSubstitution", fillcolor="#47e539"] ;
351 -> 353 ;
354 [label="gini = 0.0\nsamples = 13\nvalue = [13, 0, 0, 0]\nclass = ColumnarTransposition", fillcolor="#e58139"] ;
350 -> 354 ;
355 [label="Text <= 686.0\ngini = 0.442\nsamples = 55\nvalue = [40.0, 6.0, 2.0, 7.0]\nclass = ColumnarTransposition", fillcolor="#eda877"] ;
345 -> 355 ;
356 [label="gini = 0.0\nsamples = 6\nvalue = [0, 0, 0, 6]\nclass = ceaser", fillcolor="#d739e5"] ;
355 -> 356 ;
357 [label="Top9Letters <= 326.0\ngini = 0.317\nsamples = 49\nvalue = [40.0, 6.0, 2.0, 1.0]\nclass = ColumnarTransposition", fillcolor="#ea9b62"] ;
355 -> 357 ;
358 [label="Top5Bigrams <= 319.0\ngini = 0.46\nsamples = 19\nvalue = [13, 5, 1, 0]\nclass = ColumnarTransposition", fillcolor="#f0b78e"] ;
357 -> 358 ;
359 [label="IC <= 0.052\ngini = 0.32\nsamples = 16\nvalue = [13, 2, 1, 0]\nclass = ColumnarTransposition", fillcolor="#eb9c63"] ;
358 -> 359 ;
360 [label="gini = 0.0\nsamples = 1\nvalue = [0, 0, 1, 0]\nclass = Vigenere", fillcolor="#399de5"] ;
359 -> 360 ;
361 [label="Text <= 924.5\ngini = 0.231\nsamples = 15\nvalue = [13, 2, 0, 0]\nclass = ColumnarTransposition", fillcolor="#e99457"] ;
359 -> 361 ;
362 [label="gini = 0.0\nsamples = 1\nvalue = [0, 1, 0, 0]\nclass = MonoalphabeticSubstitution", fillcolor="#47e539"] ;
361 -> 362 ;
363 [label="IC <= 0.07\ngini = 0.133\nsamples = 14\nvalue = [13, 1, 0, 0]\nclass = ColumnarTransposition", fillcolor="#e78b48"] ;
361 -> 363 ;
364 [label="gini = 0.0\nsamples = 9\nvalue = [9, 0, 0, 0]\nclass = ColumnarTransposition", fillcolor="#e58139"] ;
363 -> 364 ;
365 [label="IC <= 0.073\ngini = 0.32\nsamples = 5\nvalue = [4, 1, 0, 0]\nclass = ColumnarTransposition", fillcolor="#eca06a"] ;
363 -> 365 ;
366 [label="gini = 0.0\nsamples = 1\nvalue = [0, 1, 0, 0]\nclass = MonoalphabeticSubstitution", fillcolor="#47e539"] ;
365 -> 366 ;
367 [label="gini = 0.0\nsamples = 4\nvalue = [4, 0, 0, 0]\nclass = ColumnarTransposition", fillcolor="#e58139"] ;
365 -> 367 ;
368 [label="gini = 0.0\nsamples = 3\nvalue = [0, 3, 0, 0]\nclass = MonoalphabeticSubstitution", fillcolor="#47e539"] ;
358 -> 368 ;
369 [label="Text <= 1517.5\ngini = 0.187\nsamples = 30\nvalue = [27, 1, 1, 1]\nclass = ColumnarTransposition", fillcolor="#e88e4d"] ;
357 -> 369 ;
370 [label="Top9Letters <= 358.0\ngini = 0.14\nsamples = 27\nvalue = [25, 1, 0, 1]\nclass = ColumnarTransposition", fillcolor="#e78b48"] ;
369 -> 370 ;
371 [label="gini = 0.0\nsamples = 13\nvalue = [13, 0, 0, 0]\nclass = ColumnarTransposition", fillcolor="#e58139"] ;
370 -> 371 ;
372 [label="Top9Letters <= 360.5\ngini = 0.255\nsamples = 14\nvalue = [12, 1, 0, 1]\nclass = ColumnarTransposition", fillcolor="#e99457"] ;
370 -> 372 ;
373 [label="gini = 0.0\nsamples = 1\nvalue = [0, 0, 0, 1]\nclass = ceaser", fillcolor="#d739e5"] ;
372 -> 373 ;
374 [label="Top5Bigrams <= 369.0\ngini = 0.142\nsamples = 13\nvalue = [12, 1, 0, 0]\nclass = ColumnarTransposition", fillcolor="#e78c49"] ;
372 -> 374 ;
375 [label="Top9Letters <= 366.5\ngini = 0.444\nsamples = 3\nvalue = [2, 1, 0, 0]\nclass = ColumnarTransposition", fillcolor="#f2c09c"] ;
374 -> 375 ;
376 [label="gini = 0.0\nsamples = 2\nvalue = [2, 0, 0, 0]\nclass = ColumnarTransposition", fillcolor="#e58139"] ;
375 -> 376 ;
377 [label="gini = 0.0\nsamples = 1\nvalue = [0, 1, 0, 0]\nclass = MonoalphabeticSubstitution", fillcolor="#47e539"] ;
375 -> 377 ;
378 [label="gini = 0.0\nsamples = 10\nvalue = [10, 0, 0, 0]\nclass = ColumnarTransposition", fillcolor="#e58139"] ;
374 -> 378 ;
379 [label="Top9Letters <= 375.5\ngini = 0.444\nsamples = 3\nvalue = [2, 0, 1, 0]\nclass = ColumnarTransposition", fillcolor="#f2c09c"] ;
369 -> 379 ;
380 [label="gini = 0.0\nsamples = 2\nvalue = [2, 0, 0, 0]\nclass = ColumnarTransposition", fillcolor="#e58139"] ;
379 -> 380 ;
381 [label="gini = 0.0\nsamples = 1\nvalue = [0, 0, 1, 0]\nclass = Vigenere", fillcolor="#399de5"] ;
379 -> 381 ;
382 [label="IC <= 0.06\ngini = 0.5\nsamples = 2\nvalue = [0, 1, 0, 1]\nclass = MonoalphabeticSubstitution", fillcolor="#ffffff"] ;
344 -> 382 ;
383 [label="gini = 0.0\nsamples = 1\nvalue = [0, 1, 0, 0]\nclass = MonoalphabeticSubstitution", fillcolor="#47e539"] ;
382 -> 383 ;
384 [label="gini = 0.0\nsamples = 1\nvalue = [0, 0, 0, 1]\nclass = ceaser", fillcolor="#d739e5"] ;
382 -> 384 ;
385 [label="gini = 0.0\nsamples = 27\nvalue = [27, 0, 0, 0]\nclass = ColumnarTransposition", fillcolor="#e58139"] ;
343 -> 385 ;
386 [label="Top5Bigrams <= 305.0\ngini = 0.48\nsamples = 5\nvalue = [2, 3, 0, 0]\nclass = MonoalphabeticSubstitution", fillcolor="#c2f6bd"] ;
342 -> 386 ;
387 [label="gini = 0.0\nsamples = 2\nvalue = [2, 0, 0, 0]\nclass = ColumnarTransposition", fillcolor="#e58139"] ;
386 -> 387 ;
388 [label="gini = 0.0\nsamples = 3\nvalue = [0, 3, 0, 0]\nclass = MonoalphabeticSubstitution", fillcolor="#47e539"] ;
386 -> 388 ;
389 [label="IC <= 0.066\ngini = 0.571\nsamples = 7\nvalue = [1, 4, 0, 2]\nclass = MonoalphabeticSubstitution", fillcolor="#b5f5b0"] ;
341 -> 389 ;
390 [label="Top9Letters <= 425.5\ngini = 0.32\nsamples = 5\nvalue = [0, 4, 0, 1]\nclass = MonoalphabeticSubstitution", fillcolor="#75ec6a"] ;
389 -> 390 ;
391 [label="gini = 0.0\nsamples = 1\nvalue = [0, 0, 0, 1]\nclass = ceaser", fillcolor="#d739e5"] ;
390 -> 391 ;
392 [label="gini = 0.0\nsamples = 4\nvalue = [0, 4, 0, 0]\nclass = MonoalphabeticSubstitution", fillcolor="#47e539"] ;
390 -> 392 ;
393 [label="Top5Bigrams <= 428.5\ngini = 0.5\nsamples = 2\nvalue = [1, 0, 0, 1]\nclass = ColumnarTransposition", fillcolor="#ffffff"] ;
389 -> 393 ;
394 [label="gini = 0.0\nsamples = 1\nvalue = [1, 0, 0, 0]\nclass = ColumnarTransposition", fillcolor="#e58139"] ;
393 -> 394 ;
395 [label="gini = 0.0\nsamples = 1\nvalue = [0, 0, 0, 1]\nclass = ceaser", fillcolor="#d739e5"] ;
393 -> 395 ;
396 [label="Top9Letters <= 541.5\ngini = 0.171\nsamples = 142\nvalue = [129, 4, 1, 8]\nclass = ColumnarTransposition", fillcolor="#e88d4c"] ;
340 -> 396 ;
397 [label="Top5Bigrams <= 537.0\ngini = 0.225\nsamples = 105\nvalue = [92, 4, 1, 8]\nclass = ColumnarTransposition", fillcolor="#e89254"] ;
396 -> 397 ;
398 [label="Text <= 714.0\ngini = 0.164\nsamples = 101\nvalue = [92, 1, 0, 8]\nclass = ColumnarTransposition", fillcolor="#e88d4c"] ;
397 -> 398 ;
399 [label="Text <= 660.5\ngini = 0.245\nsamples = 42\nvalue = [36, 0, 0, 6]\nclass = ColumnarTransposition", fillcolor="#e9965a"] ;
398 -> 399 ;
400 [label="IC <= 0.053\ngini = 0.054\nsamples = 36\nvalue = [35, 0, 0, 1]\nclass = ColumnarTransposition", fillcolor="#e6853f"] ;
399 -> 400 ;
401 [label="Text <= 266.5\ngini = 0.444\nsamples = 3\nvalue = [2, 0, 0, 1]\nclass = ColumnarTransposition", fillcolor="#f2c09c"] ;
400 -> 401 ;
402 [label="gini = 0.0\nsamples = 1\nvalue = [0, 0, 0, 1]\nclass = ceaser", fillcolor="#d739e5"] ;
401 -> 402 ;
403 [label="gini = 0.0\nsamples = 2\nvalue = [2, 0, 0, 0]\nclass = ColumnarTransposition", fillcolor="#e58139"] ;
401 -> 403 ;
404 [label="gini = 0.0\nsamples = 33\nvalue = [33, 0, 0, 0]\nclass = ColumnarTransposition", fillcolor="#e58139"] ;
400 -> 404 ;
405 [label="Top5Bigrams <= 522.5\ngini = 0.278\nsamples = 6\nvalue = [1, 0, 0, 5]\nclass = ceaser", fillcolor="#df61ea"] ;
399 -> 405 ;
406 [label="gini = 0.0\nsamples = 5\nvalue = [0, 0, 0, 5]\nclass = ceaser", fillcolor="#d739e5"] ;
405 -> 406 ;
407 [label="gini = 0.0\nsamples = 1\nvalue = [1, 0, 0, 0]\nclass = ColumnarTransposition", fillcolor="#e58139"] ;
405 -> 407 ;
408 [label="Top5Bigrams <= 517.0\ngini = 0.098\nsamples = 59\nvalue = [56, 1, 0, 2]\nclass = ColumnarTransposition", fillcolor="#e68843"] ;
398 -> 408 ;
409 [label="IC <= 0.059\ngini = 0.041\nsamples = 48\nvalue = [47, 1, 0, 0]\nclass = ColumnarTransposition", fillcolor="#e6843d"] ;
408 -> 409 ;
410 [label="IC <= 0.059\ngini = 0.111\nsamples = 17\nvalue = [16, 1, 0, 0]\nclass = ColumnarTransposition", fillcolor="#e78945"] ;
409 -> 410 ;
411 [label="gini = 0.0\nsamples = 16\nvalue = [16, 0, 0, 0]\nclass = ColumnarTransposition", fillcolor="#e58139"] ;
410 -> 411 ;
412 [label="gini = 0.0\nsamples = 1\nvalue = [0, 1, 0, 0]\nclass = MonoalphabeticSubstitution", fillcolor="#47e539"] ;
410 -> 412 ;
413 [label="gini = 0.0\nsamples = 31\nvalue = [31, 0, 0, 0]\nclass = ColumnarTransposition", fillcolor="#e58139"] ;
409 -> 413 ;
414 [label="Top5Bigrams <= 520.5\ngini = 0.298\nsamples = 11\nvalue = [9, 0, 0, 2]\nclass = ColumnarTransposition", fillcolor="#eb9d65"] ;
408 -> 414 ;
415 [label="gini = 0.0\nsamples = 2\nvalue = [0, 0, 0, 2]\nclass = ceaser", fillcolor="#d739e5"] ;
414 -> 415 ;
416 [label="gini = 0.0\nsamples = 9\nvalue = [9, 0, 0, 0]\nclass = ColumnarTransposition", fillcolor="#e58139"] ;
414 -> 416 ;
417 [label="IC <= 0.056\ngini = 0.375\nsamples = 4\nvalue = [0, 3, 1, 0]\nclass = MonoalphabeticSubstitution", fillcolor="#84ee7b"] ;
397 -> 417 ;
418 [label="gini = 0.0\nsamples = 1\nvalue = [0, 0, 1, 0]\nclass = Vigenere", fillcolor="#399de5"] ;
417 -> 418 ;
419 [label="gini = 0.0\nsamples = 3\nvalue = [0, 3, 0, 0]\nclass = MonoalphabeticSubstitution", fillcolor="#47e539"] ;
417 -> 419 ;
420 [label="gini = 0.0\nsamples = 37\nvalue = [37, 0, 0, 0]\nclass = ColumnarTransposition", fillcolor="#e58139"] ;
396 -> 420 ;
421 [label="IC <= 0.049\ngini = 0.32\nsamples = 5\nvalue = [1, 4, 0, 0]\nclass = MonoalphabeticSubstitution", fillcolor="#75ec6a"] ;
339 -> 421 ;
422 [label="gini = 0.0\nsamples = 1\nvalue = [1, 0, 0, 0]\nclass = ColumnarTransposition", fillcolor="#e58139"] ;
421 -> 422 ;
423 [label="gini = 0.0\nsamples = 4\nvalue = [0, 4, 0, 0]\nclass = MonoalphabeticSubstitution", fillcolor="#47e539"] ;
421 -> 423 ;
424 [label="IC <= 0.056\ngini = 0.693\nsamples = 1101\nvalue = [241.0, 392.0, 75.0, 393.0]\nclass = ceaser", fillcolor="#ffffff"] ;
222 -> 424 ;
425 [label="Text <= 1715.5\ngini = 0.729\nsamples = 263\nvalue = [64, 96, 59, 44]\nclass = MonoalphabeticSubstitution", fillcolor="#e1fbdf"] ;
424 -> 425 ;
426 [label="Top9Letters <= 723.5\ngini = 0.72\nsamples = 208\nvalue = [61, 77, 38, 32]\nclass = MonoalphabeticSubstitution", fillcolor="#ebfce9"] ;
425 -> 426 ;
427 [label="IC <= 0.056\ngini = 0.554\nsamples = 19\nvalue = [0, 11, 6, 2]\nclass = MonoalphabeticSubstitution", fillcolor="#b8f5b3"] ;
426 -> 427 ;
428 [label="Top9Letters <= 615.5\ngini = 0.512\nsamples = 17\nvalue = [0, 11, 4, 2]\nclass = MonoalphabeticSubstitution", fillcolor="#9cf194"] ;
427 -> 428 ;
429 [label="IC <= 0.051\ngini = 0.625\nsamples = 4\nvalue = [0, 1, 2, 1]\nclass = Vigenere", fillcolor="#bddef6"] ;
428 -> 429 ;
430 [label="Top9Letters <= 593.5\ngini = 0.5\nsamples = 2\nvalue = [0, 1, 0, 1]\nclass = MonoalphabeticSubstitution", fillcolor="#ffffff"] ;
429 -> 430 ;
431 [label="gini = 0.0\nsamples = 1\nvalue = [0, 1, 0, 0]\nclass = MonoalphabeticSubstitution", fillcolor="#47e539"] ;
430 -> 431 ;
432 [label="gini = 0.0\nsamples = 1\nvalue = [0, 0, 0, 1]\nclass = ceaser", fillcolor="#d739e5"] ;
430 -> 432 ;
433 [label="gini = 0.0\nsamples = 2\nvalue = [0, 0, 2, 0]\nclass = Vigenere", fillcolor="#399de5"] ;
429 -> 433 ;
434 [label="IC <= 0.048\ngini = 0.379\nsamples = 13\nvalue = [0, 10, 2, 1]\nclass = MonoalphabeticSubstitution", fillcolor="#79ec6f"] ;
428 -> 434 ;
435 [label="gini = 0.0\nsamples = 1\nvalue = [0, 0, 1, 0]\nclass = Vigenere", fillcolor="#399de5"] ;
434 -> 435 ;
436 [label="Top5Bigrams <= 718.0\ngini = 0.292\nsamples = 12\nvalue = [0, 10, 1, 1]\nclass = MonoalphabeticSubstitution", fillcolor="#68ea5d"] ;
434 -> 436 ;
437 [label="Top9Letters <= 674.5\ngini = 0.165\nsamples = 11\nvalue = [0, 10, 0, 1]\nclass = MonoalphabeticSubstitution", fillcolor="#59e84d"] ;
436 -> 437 ;
438 [label="Top5Bigrams <= 670.0\ngini = 0.32\nsamples = 5\nvalue = [0, 4, 0, 1]\nclass = MonoalphabeticSubstitution", fillcolor="#75ec6a"] ;
437 -> 438 ;
439 [label="gini = 0.0\nsamples = 4\nvalue = [0, 4, 0, 0]\nclass = MonoalphabeticSubstitution", fillcolor="#47e539"] ;
438 -> 439 ;
440 [label="gini = 0.0\nsamples = 1\nvalue = [0, 0, 0, 1]\nclass = ceaser", fillcolor="#d739e5"] ;
438 -> 440 ;
441 [label="gini = 0.0\nsamples = 6\nvalue = [0, 6, 0, 0]\nclass = MonoalphabeticSubstitution", fillcolor="#47e539"] ;
437 -> 441 ;
442 [label="gini = 0.0\nsamples = 1\nvalue = [0, 0, 1, 0]\nclass = Vigenere", fillcolor="#399de5"] ;
436 -> 442 ;
443 [label="gini = 0.0\nsamples = 2\nvalue = [0, 0, 2, 0]\nclass = Vigenere", fillcolor="#399de5"] ;
427 -> 443 ;
444 [label="IC <= 0.053\ngini = 0.72\nsamples = 189\nvalue = [61, 66, 32, 30]\nclass = MonoalphabeticSubstitution", fillcolor="#f8fef7"] ;
426 -> 444 ;
445 [label="IC <= 0.052\ngini = 0.724\nsamples = 104\nvalue = [36, 29, 26, 13]\nclass = ColumnarTransposition", fillcolor="#fdf3ed"] ;
444 -> 445 ;
446 [label="Top9Letters <= 1960.0\ngini = 0.726\nsamples = 85\nvalue = [24, 27, 24, 10]\nclass = MonoalphabeticSubstitution", fillcolor="#f6fef5"] ;
445 -> 446 ;
447 [label="Top9Letters <= 1838.0\ngini = 0.724\nsamples = 76\nvalue = [24, 24, 19, 9]\nclass = ColumnarTransposition", fillcolor="#ffffff"] ;
446 -> 447 ;
448 [label="Text <= 1635.5\ngini = 0.716\nsamples = 66\nvalue = [17, 24, 18, 7]\nclass = MonoalphabeticSubstitution", fillcolor="#e8fce6"] ;
447 -> 448 ;
449 [label="Text <= 1547.0\ngini = 0.718\nsamples = 61\nvalue = [17, 20, 18, 6]\nclass = MonoalphabeticSubstitution", fillcolor="#f6fef6"] ;
448 -> 449 ;
450 [label="Top9Letters <= 1788.0\ngini = 0.718\nsamples = 58\nvalue = [17.0, 20.0, 15.0, 6.0]\nclass = MonoalphabeticSubstitution", fillcolor="#f2fdf1"] ;
449 -> 450 ;
451 [label="Top5Bigrams <= 1455.5\ngini = 0.715\nsamples = 54\nvalue = [17, 19, 12, 6]\nclass = MonoalphabeticSubstitution", fillcolor="#f5fef4"] ;
450 -> 451 ;
452 [label="Top5Bigrams <= 1297.0\ngini = 0.73\nsamples = 42\nvalue = [10, 14, 12, 6]\nclass = MonoalphabeticSubstitution", fillcolor="#f3fdf2"] ;
451 -> 452 ;
453 [label="IC <= 0.051\ngini = 0.711\nsamples = 32\nvalue = [10, 12, 6, 4]\nclass = MonoalphabeticSubstitution", fillcolor="#eefded"] ;
452 -> 453 ;
454 [label="IC <= 0.05\ngini = 0.661\nsamples = 27\nvalue = [10, 11, 5, 1]\nclass = MonoalphabeticSubstitution", fillcolor="#f4fdf3"] ;
453 -> 454 ;
455 [label="Text <= 832.0\ngini = 0.659\nsamples = 19\nvalue = [4, 9, 5, 1]\nclass = MonoalphabeticSubstitution", fillcolor="#caf8c6"] ;
454 -> 455 ;
456 [label="Top9Letters <= 950.5\ngini = 0.444\nsamples = 6\nvalue = [0, 2, 4, 0]\nclass = Vigenere", fillcolor="#9ccef2"] ;
455 -> 456 ;
457 [label="gini = 0.0\nsamples = 3\nvalue = [0, 0, 3, 0]\nclass = Vigenere", fillcolor="#399de5"] ;
456 -> 457 ;
458 [label="Top5Bigrams <= 1110.0\ngini = 0.444\nsamples = 3\nvalue = [0, 2, 1, 0]\nclass = MonoalphabeticSubstitution", fillcolor="#a3f29c"] ;
456 -> 458 ;
459 [label="gini = 0.0\nsamples = 2\nvalue = [0, 2, 0, 0]\nclass = MonoalphabeticSubstitution", fillcolor="#47e539"] ;
458 -> 459 ;
460 [label="gini = 0.0\nsamples = 1\nvalue = [0, 0, 1, 0]\nclass = Vigenere", fillcolor="#399de5"] ;
458 -> 460 ;
461 [label="IC <= 0.048\ngini = 0.604\nsamples = 13\nvalue = [4, 7, 1, 1]\nclass = MonoalphabeticSubstitution", fillcolor="#c2f6bd"] ;
455 -> 461 ;
462 [label="Top5Bigrams <= 905.0\ngini = 0.32\nsamples = 5\nvalue = [0, 4, 0, 1]\nclass = MonoalphabeticSubstitution", fillcolor="#75ec6a"] ;
461 -> 462 ;
463 [label="gini = 0.0\nsamples = 1\nvalue = [0, 0, 0, 1]\nclass = ceaser", fillcolor="#d739e5"] ;
462 -> 463 ;
464 [label="gini = 0.0\nsamples = 4\nvalue = [0, 4, 0, 0]\nclass = MonoalphabeticSubstitution", fillcolor="#47e539"] ;
462 -> 464 ;
465 [label="IC <= 0.049\ngini = 0.594\nsamples = 8\nvalue = [4, 3, 1, 0]\nclass = ColumnarTransposition", fillcolor="#fae6d7"] ;
461 -> 465 ;
466 [label="gini = 0.0\nsamples = 3\nvalue = [3, 0, 0, 0]\nclass = ColumnarTransposition", fillcolor="#e58139"] ;
465 -> 466 ;
467 [label="Top9Letters <= 802.5\ngini = 0.56\nsamples = 5\nvalue = [1, 3, 1, 0]\nclass = MonoalphabeticSubstitution", fillcolor="#a3f29c"] ;
465 -> 467 ;
468 [label="gini = 0.0\nsamples = 1\nvalue = [0, 0, 1, 0]\nclass = Vigenere", fillcolor="#399de5"] ;
467 -> 468 ;
469 [label="Top9Letters <= 1044.5\ngini = 0.375\nsamples = 4\nvalue = [1, 3, 0, 0]\nclass = MonoalphabeticSubstitution", fillcolor="#84ee7b"] ;
467 -> 469 ;
470 [label="gini = 0.0\nsamples = 2\nvalue = [0, 2, 0, 0]\nclass = MonoalphabeticSubstitution", fillcolor="#47e539"] ;
469 -> 470 ;
471 [label="IC <= 0.049\ngini = 0.5\nsamples = 2\nvalue = [1, 1, 0, 0]\nclass = ColumnarTransposition", fillcolor="#ffffff"] ;
469 -> 471 ;
472 [label="gini = 0.0\nsamples = 1\nvalue = [0, 1, 0, 0]\nclass = MonoalphabeticSubstitution", fillcolor="#47e539"] ;
471 -> 472 ;
473 [label="gini = 0.0\nsamples = 1\nvalue = [1, 0, 0, 0]\nclass = ColumnarTransposition", fillcolor="#e58139"] ;
471 -> 473 ;
474 [label="Text <= 288.5\ngini = 0.375\nsamples = 8\nvalue = [6, 2, 0, 0]\nclass = ColumnarTransposition", fillcolor="#eeab7b"] ;
454 -> 474 ;
475 [label="gini = 0.0\nsamples = 2\nvalue = [0, 2, 0, 0]\nclass = MonoalphabeticSubstitution", fillcolor="#47e539"] ;
474 -> 475 ;
476 [label="gini = 0.0\nsamples = 6\nvalue = [6, 0, 0, 0]\nclass = ColumnarTransposition", fillcolor="#e58139"] ;
474 -> 476 ;
477 [label="Text <= 946.5\ngini = 0.56\nsamples = 5\nvalue = [0, 1, 1, 3]\nclass = ceaser", fillcolor="#eb9cf2"] ;
453 -> 477 ;
478 [label="Top9Letters <= 1040.0\ngini = 0.5\nsamples = 2\nvalue = [0, 1, 1, 0]\nclass = MonoalphabeticSubstitution", fillcolor="#ffffff"] ;
477 -> 478 ;
479 [label="gini = 0.0\nsamples = 1\nvalue = [0, 0, 1, 0]\nclass = Vigenere", fillcolor="#399de5"] ;
478 -> 479 ;
480 [label="gini = 0.0\nsamples = 1\nvalue = [0, 1, 0, 0]\nclass = MonoalphabeticSubstitution", fillcolor="#47e539"] ;
478 -> 480 ;
481 [label="gini = 0.0\nsamples = 3\nvalue = [0, 0, 0, 3]\nclass = ceaser", fillcolor="#d739e5"] ;
477 -> 481 ;
482 [label="Top9Letters <= 1351.0\ngini = 0.56\nsamples = 10\nvalue = [0, 2, 6, 2]\nclass = Vigenere", fillcolor="#9ccef2"] ;
452 -> 482 ;
483 [label="gini = 0.0\nsamples = 4\nvalue = [0, 0, 4, 0]\nclass = Vigenere", fillcolor="#399de5"] ;
482 -> 483 ;
484 [label="Top5Bigrams <= 1426.0\ngini = 0.667\nsamples = 6\nvalue = [0, 2, 2, 2]\nclass = MonoalphabeticSubstitution", fillcolor="#ffffff"] ;
482 -> 484 ;
485 [label="Text <= 453.5\ngini = 0.444\nsamples = 3\nvalue = [0, 2, 1, 0]\nclass = MonoalphabeticSubstitution", fillcolor="#a3f29c"] ;
484 -> 485 ;
486 [label="gini = 0.0\nsamples = 1\nvalue = [0, 0, 1, 0]\nclass = Vigenere", fillcolor="#399de5"] ;
485 -> 486 ;
487 [label="gini = 0.0\nsamples = 2\nvalue = [0, 2, 0, 0]\nclass = MonoalphabeticSubstitution", fillcolor="#47e539"] ;
485 -> 487 ;
488 [label="IC <= 0.049\ngini = 0.444\nsamples = 3\nvalue = [0, 0, 1, 2]\nclass = ceaser", fillcolor="#eb9cf2"] ;
484 -> 488 ;
489 [label="gini = 0.0\nsamples = 1\nvalue = [0, 0, 1, 0]\nclass = Vigenere", fillcolor="#399de5"] ;
488 -> 489 ;
490 [label="gini = 0.0\nsamples = 2\nvalue = [0, 0, 0, 2]\nclass = ceaser", fillcolor="#d739e5"] ;
488 -> 490 ;
491 [label="IC <= 0.052\ngini = 0.486\nsamples = 12\nvalue = [7, 5, 0, 0]\nclass = ColumnarTransposition", fillcolor="#f8dbc6"] ;
451 -> 491 ;
492 [label="Text <= 729.0\ngini = 0.42\nsamples = 10\nvalue = [7, 3, 0, 0]\nclass = ColumnarTransposition", fillcolor="#f0b78e"] ;
491 -> 492 ;
493 [label="gini = 0.0\nsamples = 4\nvalue = [4, 0, 0, 0]\nclass = ColumnarTransposition", fillcolor="#e58139"] ;
492 -> 493 ;
494 [label="Text <= 1458.0\ngini = 0.5\nsamples = 6\nvalue = [3, 3, 0, 0]\nclass = ColumnarTransposition", fillcolor="#ffffff"] ;
492 -> 494 ;
495 [label="Top5Bigrams <= 1594.5\ngini = 0.375\nsamples = 4\nvalue = [1, 3, 0, 0]\nclass = MonoalphabeticSubstitution", fillcolor="#84ee7b"] ;
494 -> 495 ;
496 [label="IC <= 0.049\ngini = 0.5\nsamples = 2\nvalue = [1, 1, 0, 0]\nclass = ColumnarTransposition", fillcolor="#ffffff"] ;
495 -> 496 ;
497 [label="gini = 0.0\nsamples = 1\nvalue = [1, 0, 0, 0]\nclass = ColumnarTransposition", fillcolor="#e58139"] ;
496 -> 497 ;
498 [label="gini = 0.0\nsamples = 1\nvalue = [0, 1, 0, 0]\nclass = MonoalphabeticSubstitution", fillcolor="#47e539"] ;
496 -> 498 ;
499 [label="gini = 0.0\nsamples = 2\nvalue = [0, 2, 0, 0]\nclass = MonoalphabeticSubstitution", fillcolor="#47e539"] ;
495 -> 499 ;
500 [label="gini = 0.0\nsamples = 2\nvalue = [2, 0, 0, 0]\nclass = ColumnarTransposition", fillcolor="#e58139"] ;
494 -> 500 ;
501 [label="gini = 0.0\nsamples = 2\nvalue = [0, 2, 0, 0]\nclass = MonoalphabeticSubstitution", fillcolor="#47e539"] ;
491 -> 501 ;
502 [label="Text <= 926.5\ngini = 0.375\nsamples = 4\nvalue = [0, 1, 3, 0]\nclass = Vigenere", fillcolor="#7bbeee"] ;
450 -> 502 ;
503 [label="gini = 0.0\nsamples = 1\nvalue = [0, 1, 0, 0]\nclass = MonoalphabeticSubstitution", fillcolor="#47e539"] ;
502 -> 503 ;
504 [label="gini = 0.0\nsamples = 3\nvalue = [0, 0, 3, 0]\nclass = Vigenere", fillcolor="#399de5"] ;
502 -> 504 ;
505 [label="gini = 0.0\nsamples = 3\nvalue = [0, 0, 3, 0]\nclass = Vigenere", fillcolor="#399de5"] ;
449 -> 505 ;
506 [label="Top5Bigrams <= 1646.0\ngini = 0.32\nsamples = 5\nvalue = [0, 4, 0, 1]\nclass = MonoalphabeticSubstitution", fillcolor="#75ec6a"] ;
448 -> 506 ;
507 [label="gini = 0.0\nsamples = 3\nvalue = [0, 3, 0, 0]\nclass = MonoalphabeticSubstitution", fillcolor="#47e539"] ;
506 -> 507 ;
508 [label="Top5Bigrams <= 1753.0\ngini = 0.5\nsamples = 2\nvalue = [0, 1, 0, 1]\nclass = MonoalphabeticSubstitution", fillcolor="#ffffff"] ;
506 -> 508 ;
509 [label="gini = 0.0\nsamples = 1\nvalue = [0, 0, 0, 1]\nclass = ceaser", fillcolor="#d739e5"] ;
508 -> 509 ;
510 [label="gini = 0.0\nsamples = 1\nvalue = [0, 1, 0, 0]\nclass = MonoalphabeticSubstitution", fillcolor="#47e539"] ;
508 -> 510 ;
511 [label="Text <= 669.5\ngini = 0.46\nsamples = 10\nvalue = [7, 0, 1, 2]\nclass = ColumnarTransposition", fillcolor="#efb083"] ;
447 -> 511 ;
512 [label="Text <= 355.0\ngini = 0.444\nsamples = 3\nvalue = [0, 0, 1, 2]\nclass = ceaser", fillcolor="#eb9cf2"] ;
511 -> 512 ;
513 [label="gini = 0.0\nsamples = 2\nvalue = [0, 0, 0, 2]\nclass = ceaser", fillcolor="#d739e5"] ;
512 -> 513 ;
514 [label="gini = 0.0\nsamples = 1\nvalue = [0, 0, 1, 0]\nclass = Vigenere", fillcolor="#399de5"] ;
512 -> 514 ;
515 [label="gini = 0.0\nsamples = 7\nvalue = [7, 0, 0, 0]\nclass = ColumnarTransposition", fillcolor="#e58139"] ;
511 -> 515 ;
516 [label="IC <= 0.05\ngini = 0.568\nsamples = 9\nvalue = [0, 3, 5, 1]\nclass = Vigenere", fillcolor="#bddef6"] ;
446 -> 516 ;
517 [label="IC <= 0.048\ngini = 0.611\nsamples = 6\nvalue = [0, 3, 2, 1]\nclass = MonoalphabeticSubstitution", fillcolor="#d1f8ce"] ;
516 -> 517 ;
518 [label="gini = 0.0\nsamples = 1\nvalue = [0, 0, 0, 1]\nclass = ceaser", fillcolor="#d739e5"] ;
517 -> 518 ;
519 [label="IC <= 0.049\ngini = 0.48\nsamples = 5\nvalue = [0, 3, 2, 0]\nclass = MonoalphabeticSubstitution", fillcolor="#c2f6bd"] ;
517 -> 519 ;
520 [label="Text <= 198.5\ngini = 0.444\nsamples = 3\nvalue = [0, 1, 2, 0]\nclass = Vigenere", fillcolor="#9ccef2"] ;
519 -> 520 ;
521 [label="gini = 0.0\nsamples = 1\nvalue = [0, 1, 0, 0]\nclass = MonoalphabeticSubstitution", fillcolor="#47e539"] ;
520 -> 521 ;
522 [label="gini = 0.0\nsamples = 2\nvalue = [0, 0, 2, 0]\nclass = Vigenere", fillcolor="#399de5"] ;
520 -> 522 ;
523 [label="gini = 0.0\nsamples = 2\nvalue = [0, 2, 0, 0]\nclass = MonoalphabeticSubstitution", fillcolor="#47e539"] ;
519 -> 523 ;
524 [label="gini = 0.0\nsamples = 3\nvalue = [0, 0, 3, 0]\nclass = Vigenere", fillcolor="#399de5"] ;
516 -> 524 ;
525 [label="IC <= 0.052\ngini = 0.554\nsamples = 19\nvalue = [12, 2, 2, 3]\nclass = ColumnarTransposition", fillcolor="#f0b890"] ;
445 -> 525 ;
526 [label="Top9Letters <= 1935.5\ngini = 0.298\nsamples = 11\nvalue = [9, 2, 0, 0]\nclass = ColumnarTransposition", fillcolor="#eb9d65"] ;
525 -> 526 ;
527 [label="Top5Bigrams <= 1033.5\ngini = 0.18\nsamples = 10\nvalue = [9, 1, 0, 0]\nclass = ColumnarTransposition", fillcolor="#e88f4f"] ;
526 -> 527 ;
528 [label="Top5Bigrams <= 856.5\ngini = 0.444\nsamples = 3\nvalue = [2, 1, 0, 0]\nclass = ColumnarTransposition", fillcolor="#f2c09c"] ;
527 -> 528 ;
529 [label="gini = 0.0\nsamples = 2\nvalue = [2, 0, 0, 0]\nclass = ColumnarTransposition", fillcolor="#e58139"] ;
528 -> 529 ;
530 [label="gini = 0.0\nsamples = 1\nvalue = [0, 1, 0, 0]\nclass = MonoalphabeticSubstitution", fillcolor="#47e539"] ;
528 -> 530 ;
531 [label="gini = 0.0\nsamples = 7\nvalue = [7, 0, 0, 0]\nclass = ColumnarTransposition", fillcolor="#e58139"] ;
527 -> 531 ;
532 [label="gini = 0.0\nsamples = 1\nvalue = [0, 1, 0, 0]\nclass = MonoalphabeticSubstitution", fillcolor="#47e539"] ;
526 -> 532 ;
533 [label="Text <= 226.5\ngini = 0.656\nsamples = 8\nvalue = [3, 0, 2, 3]\nclass = ColumnarTransposition", fillcolor="#ffffff"] ;
525 -> 533 ;
534 [label="gini = 0.0\nsamples = 2\nvalue = [2, 0, 0, 0]\nclass = ColumnarTransposition", fillcolor="#e58139"] ;
533 -> 534 ;
535 [label="IC <= 0.053\ngini = 0.611\nsamples = 6\nvalue = [1, 0, 2, 3]\nclass = ceaser", fillcolor="#f5cef8"] ;
533 -> 535 ;
536 [label="Text <= 1147.5\ngini = 0.56\nsamples = 5\nvalue = [1, 0, 1, 3]\nclass = ceaser", fillcolor="#eb9cf2"] ;
535 -> 536 ;
537 [label="gini = 0.0\nsamples = 2\nvalue = [0, 0, 0, 2]\nclass = ceaser", fillcolor="#d739e5"] ;
536 -> 537 ;
538 [label="Text <= 1214.5\ngini = 0.667\nsamples = 3\nvalue = [1, 0, 1, 1]\nclass = ColumnarTransposition", fillcolor="#ffffff"] ;
536 -> 538 ;
539 [label="gini = 0.0\nsamples = 1\nvalue = [0, 0, 1, 0]\nclass = Vigenere", fillcolor="#399de5"] ;
538 -> 539 ;
540 [label="IC <= 0.053\ngini = 0.5\nsamples = 2\nvalue = [1, 0, 0, 1]\nclass = ColumnarTransposition", fillcolor="#ffffff"] ;
538 -> 540 ;
541 [label="gini = 0.0\nsamples = 1\nvalue = [0, 0, 0, 1]\nclass = ceaser", fillcolor="#d739e5"] ;
540 -> 541 ;
542 [label="gini = 0.0\nsamples = 1\nvalue = [1, 0, 0, 0]\nclass = ColumnarTransposition", fillcolor="#e58139"] ;
540 -> 542 ;
543 [label="gini = 0.0\nsamples = 1\nvalue = [0, 0, 1, 0]\nclass = Vigenere", fillcolor="#399de5"] ;
535 -> 543 ;
544 [label="IC <= 0.054\ngini = 0.679\nsamples = 85\nvalue = [25, 37, 6, 17]\nclass = MonoalphabeticSubstitution", fillcolor="#dafad7"] ;
444 -> 544 ;
545 [label="Top5Bigrams <= 914.0\ngini = 0.46\nsamples = 20\nvalue = [0, 14, 2, 4]\nclass = MonoalphabeticSubstitution", fillcolor="#8cef83"] ;
544 -> 545 ;
546 [label="Text <= 510.0\ngini = 0.444\nsamples = 3\nvalue = [0, 1, 0, 2]\nclass = ceaser", fillcolor="#eb9cf2"] ;
545 -> 546 ;
547 [label="gini = 0.0\nsamples = 1\nvalue = [0, 1, 0, 0]\nclass = MonoalphabeticSubstitution", fillcolor="#47e539"] ;
546 -> 547 ;
548 [label="gini = 0.0\nsamples = 2\nvalue = [0, 0, 0, 2]\nclass = ceaser", fillcolor="#d739e5"] ;
546 -> 548 ;
549 [label="IC <= 0.053\ngini = 0.388\nsamples = 17\nvalue = [0, 13, 2, 2]\nclass = MonoalphabeticSubstitution", fillcolor="#78ec6e"] ;
545 -> 549 ;
550 [label="gini = 0.0\nsamples = 1\nvalue = [0, 0, 0, 1]\nclass = ceaser", fillcolor="#d739e5"] ;
549 -> 550 ;
551 [label="Top9Letters <= 1776.5\ngini = 0.32\nsamples = 16\nvalue = [0, 13, 2, 1]\nclass = MonoalphabeticSubstitution", fillcolor="#6eeb63"] ;
549 -> 551 ;
552 [label="Top5Bigrams <= 1611.0\ngini = 0.494\nsamples = 9\nvalue = [0, 6, 2, 1]\nclass = MonoalphabeticSubstitution", fillcolor="#96f08e"] ;
551 -> 552 ;
553 [label="Text <= 1203.5\ngini = 0.278\nsamples = 6\nvalue = [0, 5, 0, 1]\nclass = MonoalphabeticSubstitution", fillcolor="#6cea61"] ;
552 -> 553 ;
554 [label="gini = 0.0\nsamples = 4\nvalue = [0, 4, 0, 0]\nclass = MonoalphabeticSubstitution", fillcolor="#47e539"] ;
553 -> 554 ;
555 [label="IC <= 0.053\ngini = 0.5\nsamples = 2\nvalue = [0, 1, 0, 1]\nclass = MonoalphabeticSubstitution", fillcolor="#ffffff"] ;
553 -> 555 ;
556 [label="gini = 0.0\nsamples = 1\nvalue = [0, 1, 0, 0]\nclass = MonoalphabeticSubstitution", fillcolor="#47e539"] ;
555 -> 556 ;
557 [label="gini = 0.0\nsamples = 1\nvalue = [0, 0, 0, 1]\nclass = ceaser", fillcolor="#d739e5"] ;
555 -> 557 ;
558 [label="Text <= 91.5\ngini = 0.444\nsamples = 3\nvalue = [0, 1, 2, 0]\nclass = Vigenere", fillcolor="#9ccef2"] ;
552 -> 558 ;
559 [label="gini = 0.0\nsamples = 1\nvalue = [0, 1, 0, 0]\nclass = MonoalphabeticSubstitution", fillcolor="#47e539"] ;
558 -> 559 ;
560 [label="gini = 0.0\nsamples = 2\nvalue = [0, 0, 2, 0]\nclass = Vigenere", fillcolor="#399de5"] ;
558 -> 560 ;
561 [label="gini = 0.0\nsamples = 7\nvalue = [0, 7, 0, 0]\nclass = MonoalphabeticSubstitution", fillcolor="#47e539"] ;
551 -> 561 ;
562 [label="IC <= 0.054\ngini = 0.683\nsamples = 65\nvalue = [25, 23, 4, 13]\nclass = ColumnarTransposition", fillcolor="#fef9f6"] ;
544 -> 562 ;
563 [label="Text <= 1156.0\ngini = 0.245\nsamples = 7\nvalue = [6, 0, 1, 0]\nclass = ColumnarTransposition", fillcolor="#e9965a"] ;
562 -> 563 ;
564 [label="gini = 0.0\nsamples = 5\nvalue = [5, 0, 0, 0]\nclass = ColumnarTransposition", fillcolor="#e58139"] ;
563 -> 564 ;
565 [label="Top9Letters <= 1445.5\ngini = 0.5\nsamples = 2\nvalue = [1, 0, 1, 0]\nclass = ColumnarTransposition", fillcolor="#ffffff"] ;
563 -> 565 ;
566 [label="gini = 0.0\nsamples = 1\nvalue = [0, 0, 1, 0]\nclass = Vigenere", fillcolor="#399de5"] ;
565 -> 566 ;
567 [label="gini = 0.0\nsamples = 1\nvalue = [1, 0, 0, 0]\nclass = ColumnarTransposition", fillcolor="#e58139"] ;
565 -> 567 ;
568 [label="Text <= 135.0\ngini = 0.683\nsamples = 58\nvalue = [19, 23, 3, 13]\nclass = MonoalphabeticSubstitution", fillcolor="#ecfceb"] ;
562 -> 568 ;
569 [label="gini = 0.0\nsamples = 3\nvalue = [0, 0, 0, 3]\nclass = ceaser", fillcolor="#d739e5"] ;
568 -> 569 ;
570 [label="Top9Letters <= 1646.0\ngini = 0.67\nsamples = 55\nvalue = [19, 23, 3, 10]\nclass = MonoalphabeticSubstitution", fillcolor="#ebfce9"] ;
568 -> 570 ;
571 [label="Top9Letters <= 1429.0\ngini = 0.667\nsamples = 47\nvalue = [19, 17, 2, 9]\nclass = ColumnarTransposition", fillcolor="#fdf7f2"] ;
570 -> 571 ;
572 [label="IC <= 0.054\ngini = 0.683\nsamples = 33\nvalue = [9, 14, 2, 8]\nclass = MonoalphabeticSubstitution", fillcolor="#d9fad6"] ;
571 -> 572 ;
573 [label="gini = 0.0\nsamples = 3\nvalue = [0, 0, 0, 3]\nclass = ceaser", fillcolor="#d739e5"] ;
572 -> 573 ;
574 [label="IC <= 0.055\ngini = 0.66\nsamples = 30\nvalue = [9, 14, 2, 5]\nclass = MonoalphabeticSubstitution", fillcolor="#d3f9d0"] ;
572 -> 574 ;
575 [label="IC <= 0.055\ngini = 0.543\nsamples = 18\nvalue = [5, 11, 1, 1]\nclass = MonoalphabeticSubstitution", fillcolor="#aaf3a4"] ;
574 -> 575 ;
576 [label="IC <= 0.055\ngini = 0.627\nsamples = 13\nvalue = [5, 6, 1, 1]\nclass = MonoalphabeticSubstitution", fillcolor="#e8fce6"] ;
575 -> 576 ;
577 [label="Top9Letters <= 1122.5\ngini = 0.32\nsamples = 5\nvalue = [0, 4, 1, 0]\nclass = MonoalphabeticSubstitution", fillcolor="#75ec6a"] ;
576 -> 577 ;
578 [label="gini = 0.0\nsamples = 1\nvalue = [0, 0, 1, 0]\nclass = Vigenere", fillcolor="#399de5"] ;
577 -> 578 ;
579 [label="gini = 0.0\nsamples = 4\nvalue = [0, 4, 0, 0]\nclass = MonoalphabeticSubstitution", fillcolor="#47e539"] ;
577 -> 579 ;
580 [label="Top5Bigrams <= 963.5\ngini = 0.531\nsamples = 8\nvalue = [5, 2, 0, 1]\nclass = ColumnarTransposition", fillcolor="#f2c09c"] ;
576 -> 580 ;
581 [label="Top5Bigrams <= 812.5\ngini = 0.444\nsamples = 3\nvalue = [1, 2, 0, 0]\nclass = MonoalphabeticSubstitution", fillcolor="#a3f29c"] ;
580 -> 581 ;
582 [label="gini = 0.0\nsamples = 1\nvalue = [1, 0, 0, 0]\nclass = ColumnarTransposition", fillcolor="#e58139"] ;
581 -> 582 ;
583 [label="gini = 0.0\nsamples = 2\nvalue = [0, 2, 0, 0]\nclass = MonoalphabeticSubstitution", fillcolor="#47e539"] ;
581 -> 583 ;
584 [label="Top9Letters <= 1069.5\ngini = 0.32\nsamples = 5\nvalue = [4, 0, 0, 1]\nclass = ColumnarTransposition", fillcolor="#eca06a"] ;
580 -> 584 ;
585 [label="Text <= 1333.0\ngini = 0.5\nsamples = 2\nvalue = [1, 0, 0, 1]\nclass = ColumnarTransposition", fillcolor="#ffffff"] ;
584 -> 585 ;
586 [label="gini = 0.0\nsamples = 1\nvalue = [0, 0, 0, 1]\nclass = ceaser", fillcolor="#d739e5"] ;
585 -> 586 ;
587 [label="gini = 0.0\nsamples = 1\nvalue = [1, 0, 0, 0]\nclass = ColumnarTransposition", fillcolor="#e58139"] ;
585 -> 587 ;
588 [label="gini = 0.0\nsamples = 3\nvalue = [3, 0, 0, 0]\nclass = ColumnarTransposition", fillcolor="#e58139"] ;
584 -> 588 ;
589 [label="gini = 0.0\nsamples = 5\nvalue = [0, 5, 0, 0]\nclass = MonoalphabeticSubstitution", fillcolor="#47e539"] ;
575 -> 589 ;
590 [label="Text <= 957.5\ngini = 0.708\nsamples = 12\nvalue = [4, 3, 1, 4]\nclass = ColumnarTransposition", fillcolor="#ffffff"] ;
574 -> 590 ;
591 [label="IC <= 0.056\ngini = 0.375\nsamples = 4\nvalue = [3, 1, 0, 0]\nclass = ColumnarTransposition", fillcolor="#eeab7b"] ;
590 -> 591 ;
592 [label="gini = 0.0\nsamples = 3\nvalue = [3, 0, 0, 0]\nclass = ColumnarTransposition", fillcolor="#e58139"] ;
591 -> 592 ;
593 [label="gini = 0.0\nsamples = 1\nvalue = [0, 1, 0, 0]\nclass = MonoalphabeticSubstitution", fillcolor="#47e539"] ;
591 -> 593 ;
594 [label="IC <= 0.056\ngini = 0.656\nsamples = 8\nvalue = [1, 2, 1, 4]\nclass = ceaser", fillcolor="#f2bdf6"] ;
590 -> 594 ;
595 [label="Text <= 1032.5\ngini = 0.5\nsamples = 6\nvalue = [0, 1, 1, 4]\nclass = ceaser", fillcolor="#e788ef"] ;
594 -> 595 ;
596 [label="gini = 0.0\nsamples = 1\nvalue = [0, 0, 1, 0]\nclass = Vigenere", fillcolor="#399de5"] ;
595 -> 596 ;
597 [label="Top9Letters <= 1338.5\ngini = 0.32\nsamples = 5\nvalue = [0, 1, 0, 4]\nclass = ceaser", fillcolor="#e16aec"] ;
595 -> 597 ;
598 [label="gini = 0.0\nsamples = 4\nvalue = [0, 0, 0, 4]\nclass = ceaser", fillcolor="#d739e5"] ;
597 -> 598 ;
599 [label="gini = 0.0\nsamples = 1\nvalue = [0, 1, 0, 0]\nclass = MonoalphabeticSubstitution", fillcolor="#47e539"] ;
597 -> 599 ;
600 [label="Top5Bigrams <= 986.0\ngini = 0.5\nsamples = 2\nvalue = [1, 1, 0, 0]\nclass = ColumnarTransposition", fillcolor="#ffffff"] ;
594 -> 600 ;
601 [label="gini = 0.0\nsamples = 1\nvalue = [0, 1, 0, 0]\nclass = MonoalphabeticSubstitution", fillcolor="#47e539"] ;
600 -> 601 ;
602 [label="gini = 0.0\nsamples = 1\nvalue = [1, 0, 0, 0]\nclass = ColumnarTransposition", fillcolor="#e58139"] ;
600 -> 602 ;
603 [label="Top9Letters <= 1492.0\ngini = 0.439\nsamples = 14\nvalue = [10, 3, 0, 1]\nclass = ColumnarTransposition", fillcolor="#eeaf81"] ;
571 -> 603 ;
604 [label="gini = 0.0\nsamples = 4\nvalue = [4, 0, 0, 0]\nclass = ColumnarTransposition", fillcolor="#e58139"] ;
603 -> 604 ;
605 [label="Top9Letters <= 1541.5\ngini = 0.54\nsamples = 10\nvalue = [6, 3, 0, 1]\nclass = ColumnarTransposition", fillcolor="#f4c9aa"] ;
603 -> 605 ;
606 [label="Top9Letters <= 1499.5\ngini = 0.444\nsamples = 3\nvalue = [0, 2, 0, 1]\nclass = MonoalphabeticSubstitution", fillcolor="#a3f29c"] ;
605 -> 606 ;
607 [label="gini = 0.0\nsamples = 1\nvalue = [0, 0, 0, 1]\nclass = ceaser", fillcolor="#d739e5"] ;
606 -> 607 ;
608 [label="gini = 0.0\nsamples = 2\nvalue = [0, 2, 0, 0]\nclass = MonoalphabeticSubstitution", fillcolor="#47e539"] ;
606 -> 608 ;
609 [label="IC <= 0.055\ngini = 0.245\nsamples = 7\nvalue = [6, 1, 0, 0]\nclass = ColumnarTransposition", fillcolor="#e9965a"] ;
605 -> 609 ;
610 [label="gini = 0.0\nsamples = 5\nvalue = [5, 0, 0, 0]\nclass = ColumnarTransposition", fillcolor="#e58139"] ;
609 -> 610 ;
611 [label="IC <= 0.055\ngini = 0.5\nsamples = 2\nvalue = [1, 1, 0, 0]\nclass = ColumnarTransposition", fillcolor="#ffffff"] ;
609 -> 611 ;
612 [label="gini = 0.0\nsamples = 1\nvalue = [0, 1, 0, 0]\nclass = MonoalphabeticSubstitution", fillcolor="#47e539"] ;
611 -> 612 ;
613 [label="gini = 0.0\nsamples = 1\nvalue = [1, 0, 0, 0]\nclass = ColumnarTransposition", fillcolor="#e58139"] ;
611 -> 613 ;
614 [label="IC <= 0.056\ngini = 0.406\nsamples = 8\nvalue = [0, 6, 1, 1]\nclass = MonoalphabeticSubstitution", fillcolor="#7cec72"] ;
570 -> 614 ;
615 [label="Top5Bigrams <= 2006.5\ngini = 0.245\nsamples = 7\nvalue = [0, 6, 0, 1]\nclass = MonoalphabeticSubstitution", fillcolor="#66e95a"] ;
614 -> 615 ;
616 [label="gini = 0.0\nsamples = 6\nvalue = [0, 6, 0, 0]\nclass = MonoalphabeticSubstitution", fillcolor="#47e539"] ;
615 -> 616 ;
617 [label="gini = 0.0\nsamples = 1\nvalue = [0, 0, 0, 1]\nclass = ceaser", fillcolor="#d739e5"] ;
615 -> 617 ;
618 [label="gini = 0.0\nsamples = 1\nvalue = [0, 0, 1, 0]\nclass = Vigenere", fillcolor="#399de5"] ;
614 -> 618 ;
619 [label="IC <= 0.05\ngini = 0.684\nsamples = 55\nvalue = [3, 19, 21, 12]\nclass = Vigenere", fillcolor="#f4fafe"] ;
425 -> 619 ;
620 [label="Top5Bigrams <= 1365.0\ngini = 0.578\nsamples = 16\nvalue = [1, 1, 9, 5]\nclass = Vigenere", fillcolor="#b7dbf6"] ;
619 -> 620 ;
621 [label="Top5Bigrams <= 1231.0\ngini = 0.245\nsamples = 7\nvalue = [1, 0, 6, 0]\nclass = Vigenere", fillcolor="#5aade9"] ;
620 -> 621 ;
622 [label="Top5Bigrams <= 1090.0\ngini = 0.444\nsamples = 3\nvalue = [1, 0, 2, 0]\nclass = Vigenere", fillcolor="#9ccef2"] ;
621 -> 622 ;
623 [label="gini = 0.0\nsamples = 2\nvalue = [0, 0, 2, 0]\nclass = Vigenere", fillcolor="#399de5"] ;
622 -> 623 ;
624 [label="gini = 0.0\nsamples = 1\nvalue = [1, 0, 0, 0]\nclass = ColumnarTransposition", fillcolor="#e58139"] ;
622 -> 624 ;
625 [label="gini = 0.0\nsamples = 4\nvalue = [0, 0, 4, 0]\nclass = Vigenere", fillcolor="#399de5"] ;
621 -> 625 ;
626 [label="Text <= 1760.5\ngini = 0.568\nsamples = 9\nvalue = [0, 1, 3, 5]\nclass = ceaser", fillcolor="#f2bdf6"] ;
620 -> 626 ;
627 [label="gini = 0.0\nsamples = 3\nvalue = [0, 0, 0, 3]\nclass = ceaser", fillcolor="#d739e5"] ;
626 -> 627 ;
628 [label="Text <= 1942.0\ngini = 0.611\nsamples = 6\nvalue = [0, 1, 3, 2]\nclass = Vigenere", fillcolor="#cee6f8"] ;
626 -> 628 ;
629 [label="Top9Letters <= 1458.0\ngini = 0.375\nsamples = 4\nvalue = [0, 1, 3, 0]\nclass = Vigenere", fillcolor="#7bbeee"] ;
628 -> 629 ;
630 [label="gini = 0.0\nsamples = 1\nvalue = [0, 1, 0, 0]\nclass = MonoalphabeticSubstitution", fillcolor="#47e539"] ;
629 -> 630 ;
631 [label="gini = 0.0\nsamples = 3\nvalue = [0, 0, 3, 0]\nclass = Vigenere", fillcolor="#399de5"] ;
629 -> 631 ;
632 [label="gini = 0.0\nsamples = 2\nvalue = [0, 0, 0, 2]\nclass = ceaser", fillcolor="#d739e5"] ;
628 -> 632 ;
633 [label="Top9Letters <= 2011.0\ngini = 0.657\nsamples = 39\nvalue = [2, 18, 12, 7]\nclass = MonoalphabeticSubstitution", fillcolor="#d6f9d3"] ;
619 -> 633 ;
634 [label="Top5Bigrams <= 1697.0\ngini = 0.679\nsamples = 35\nvalue = [2, 14, 12, 7]\nclass = MonoalphabeticSubstitution", fillcolor="#effdee"] ;
633 -> 634 ;
635 [label="Top9Letters <= 1381.5\ngini = 0.633\nsamples = 29\nvalue = [0, 14, 8, 7]\nclass = MonoalphabeticSubstitution", fillcolor="#caf8c6"] ;
634 -> 635 ;
636 [label="Top9Letters <= 1054.5\ngini = 0.537\nsamples = 18\nvalue = [0, 10, 7, 1]\nclass = MonoalphabeticSubstitution", fillcolor="#cdf8c9"] ;
635 -> 636 ;
637 [label="IC <= 0.051\ngini = 0.37\nsamples = 9\nvalue = [0, 7, 1, 1]\nclass = MonoalphabeticSubstitution", fillcolor="#75ec6a"] ;
636 -> 637 ;
638 [label="IC <= 0.051\ngini = 0.5\nsamples = 2\nvalue = [0, 1, 1, 0]\nclass = MonoalphabeticSubstitution", fillcolor="#ffffff"] ;
637 -> 638 ;
639 [label="gini = 0.0\nsamples = 1\nvalue = [0, 1, 0, 0]\nclass = MonoalphabeticSubstitution", fillcolor="#47e539"] ;
638 -> 639 ;
640 [label="gini = 0.0\nsamples = 1\nvalue = [0, 0, 1, 0]\nclass = Vigenere", fillcolor="#399de5"] ;
638 -> 640 ;
641 [label="Top5Bigrams <= 759.0\ngini = 0.245\nsamples = 7\nvalue = [0, 6, 0, 1]\nclass = MonoalphabeticSubstitution", fillcolor="#66e95a"] ;
637 -> 641 ;
642 [label="Top9Letters <= 668.5\ngini = 0.444\nsamples = 3\nvalue = [0, 2, 0, 1]\nclass = MonoalphabeticSubstitution", fillcolor="#a3f29c"] ;
641 -> 642 ;
643 [label="gini = 0.0\nsamples = 2\nvalue = [0, 2, 0, 0]\nclass = MonoalphabeticSubstitution", fillcolor="#47e539"] ;
642 -> 643 ;
644 [label="gini = 0.0\nsamples = 1\nvalue = [0, 0, 0, 1]\nclass = ceaser", fillcolor="#d739e5"] ;
642 -> 644 ;
645 [label="gini = 0.0\nsamples = 4\nvalue = [0, 4, 0, 0]\nclass = MonoalphabeticSubstitution", fillcolor="#47e539"] ;
641 -> 645 ;
646 [label="IC <= 0.054\ngini = 0.444\nsamples = 9\nvalue = [0, 3, 6, 0]\nclass = Vigenere", fillcolor="#9ccef2"] ;
636 -> 646 ;
647 [label="IC <= 0.052\ngini = 0.5\nsamples = 6\nvalue = [0, 3, 3, 0]\nclass = MonoalphabeticSubstitution", fillcolor="#ffffff"] ;
646 -> 647 ;
648 [label="gini = 0.0\nsamples = 2\nvalue = [0, 0, 2, 0]\nclass = Vigenere", fillcolor="#399de5"] ;
647 -> 648 ;
649 [label="Top5Bigrams <= 1325.0\ngini = 0.375\nsamples = 4\nvalue = [0, 3, 1, 0]\nclass = MonoalphabeticSubstitution", fillcolor="#84ee7b"] ;
647 -> 649 ;
650 [label="gini = 0.0\nsamples = 3\nvalue = [0, 3, 0, 0]\nclass = MonoalphabeticSubstitution", fillcolor="#47e539"] ;
649 -> 650 ;
651 [label="gini = 0.0\nsamples = 1\nvalue = [0, 0, 1, 0]\nclass = Vigenere", fillcolor="#399de5"] ;
649 -> 651 ;
652 [label="gini = 0.0\nsamples = 3\nvalue = [0, 0, 3, 0]\nclass = Vigenere", fillcolor="#399de5"] ;
646 -> 652 ;
653 [label="Top5Bigrams <= 1504.5\ngini = 0.562\nsamples = 11\nvalue = [0, 4, 1, 6]\nclass = ceaser", fillcolor="#f4c6f8"] ;
635 -> 653 ;
654 [label="gini = 0.0\nsamples = 3\nvalue = [0, 0, 0, 3]\nclass = ceaser", fillcolor="#d739e5"] ;
653 -> 654 ;
655 [label="Top5Bigrams <= 1604.5\ngini = 0.594\nsamples = 8\nvalue = [0, 4, 1, 3]\nclass = MonoalphabeticSubstitution", fillcolor="#dafad7"] ;
653 -> 655 ;
656 [label="Top9Letters <= 1513.5\ngini = 0.5\nsamples = 6\nvalue = [0, 4, 1, 1]\nclass = MonoalphabeticSubstitution", fillcolor="#91ef88"] ;
655 -> 656 ;
657 [label="gini = 0.0\nsamples = 1\nvalue = [0, 0, 1, 0]\nclass = Vigenere", fillcolor="#399de5"] ;
656 -> 657 ;
658 [label="IC <= 0.053\ngini = 0.32\nsamples = 5\nvalue = [0, 4, 0, 1]\nclass = MonoalphabeticSubstitution", fillcolor="#75ec6a"] ;
656 -> 658 ;
659 [label="gini = 0.0\nsamples = 3\nvalue = [0, 3, 0, 0]\nclass = MonoalphabeticSubstitution", fillcolor="#47e539"] ;
658 -> 659 ;
660 [label="Top5Bigrams <= 1554.0\ngini = 0.5\nsamples = 2\nvalue = [0, 1, 0, 1]\nclass = MonoalphabeticSubstitution", fillcolor="#ffffff"] ;
658 -> 660 ;
661 [label="gini = 0.0\nsamples = 1\nvalue = [0, 0, 0, 1]\nclass = ceaser", fillcolor="#d739e5"] ;
660 -> 661 ;
662 [label="gini = 0.0\nsamples = 1\nvalue = [0, 1, 0, 0]\nclass = MonoalphabeticSubstitution", fillcolor="#47e539"] ;
660 -> 662 ;
663 [label="gini = 0.0\nsamples = 2\nvalue = [0, 0, 0, 2]\nclass = ceaser", fillcolor="#d739e5"] ;
655 -> 663 ;
664 [label="Top5Bigrams <= 1905.0\ngini = 0.444\nsamples = 6\nvalue = [2, 0, 4, 0]\nclass = Vigenere", fillcolor="#9ccef2"] ;
634 -> 664 ;
665 [label="Top5Bigrams <= 1790.5\ngini = 0.444\nsamples = 3\nvalue = [2, 0, 1, 0]\nclass = ColumnarTransposition", fillcolor="#f2c09c"] ;
664 -> 665 ;
666 [label="gini = 0.0\nsamples = 1\nvalue = [0, 0, 1, 0]\nclass = Vigenere", fillcolor="#399de5"] ;
665 -> 666 ;
667 [label="gini = 0.0\nsamples = 2\nvalue = [2, 0, 0, 0]\nclass = ColumnarTransposition", fillcolor="#e58139"] ;
665 -> 667 ;
668 [label="gini = 0.0\nsamples = 3\nvalue = [0, 0, 3, 0]\nclass = Vigenere", fillcolor="#399de5"] ;
664 -> 668 ;
669 [label="gini = 0.0\nsamples = 4\nvalue = [0, 4, 0, 0]\nclass = MonoalphabeticSubstitution", fillcolor="#47e539"] ;
633 -> 669 ;
670 [label="Text <= 1667.5\ngini = 0.657\nsamples = 838\nvalue = [177, 296, 16, 349]\nclass = ceaser", fillcolor="#fbecfc"] ;
424 -> 670 ;
671 [label="Top5Bigrams <= 1080.0\ngini = 0.671\nsamples = 637\nvalue = [164.0, 215.0, 13.0, 245.0]\nclass = ceaser", fillcolor="#fcf1fd"] ;
670 -> 671 ;
672 [label="Text <= 750.5\ngini = 0.621\nsamples = 235\nvalue = [32, 87, 5, 111]\nclass = ceaser", fillcolor="#f9dffb"] ;
671 -> 672 ;
673 [label="Text <= 419.0\ngini = 0.631\nsamples = 79\nvalue = [17, 41, 3, 18]\nclass = MonoalphabeticSubstitution", fillcolor="#baf5b4"] ;
672 -> 673 ;
674 [label="Text <= 282.5\ngini = 0.684\nsamples = 30\nvalue = [11, 9, 1, 9]\nclass = ColumnarTransposition", fillcolor="#fdf3ec"] ;
673 -> 674 ;
675 [label="IC <= 0.062\ngini = 0.62\nsamples = 19\nvalue = [3, 8, 0, 8]\nclass = MonoalphabeticSubstitution", fillcolor="#ffffff"] ;
674 -> 675 ;
676 [label="Top9Letters <= 727.5\ngini = 0.5\nsamples = 6\nvalue = [3, 3, 0, 0]\nclass = ColumnarTransposition", fillcolor="#ffffff"] ;
675 -> 676 ;
677 [label="gini = 0.0\nsamples = 1\nvalue = [0, 1, 0, 0]\nclass = MonoalphabeticSubstitution", fillcolor="#47e539"] ;
676 -> 677 ;
678 [label="IC <= 0.059\ngini = 0.48\nsamples = 5\nvalue = [3, 2, 0, 0]\nclass = ColumnarTransposition", fillcolor="#f6d5bd"] ;
676 -> 678 ;
679 [label="gini = 0.0\nsamples = 1\nvalue = [0, 1, 0, 0]\nclass = MonoalphabeticSubstitution", fillcolor="#47e539"] ;
678 -> 679 ;
680 [label="Text <= 275.5\ngini = 0.375\nsamples = 4\nvalue = [3, 1, 0, 0]\nclass = ColumnarTransposition", fillcolor="#eeab7b"] ;
678 -> 680 ;
681 [label="gini = 0.0\nsamples = 3\nvalue = [3, 0, 0, 0]\nclass = ColumnarTransposition", fillcolor="#e58139"] ;
680 -> 681 ;
682 [label="gini = 0.0\nsamples = 1\nvalue = [0, 1, 0, 0]\nclass = MonoalphabeticSubstitution", fillcolor="#47e539"] ;
680 -> 682 ;
683 [label="Top9Letters <= 599.0\ngini = 0.473\nsamples = 13\nvalue = [0, 5, 0, 8]\nclass = ceaser", fillcolor="#f0b5f5"] ;
675 -> 683 ;
684 [label="gini = 0.0\nsamples = 2\nvalue = [0, 2, 0, 0]\nclass = MonoalphabeticSubstitution", fillcolor="#47e539"] ;
683 -> 684 ;
685 [label="Text <= 271.5\ngini = 0.397\nsamples = 11\nvalue = [0, 3, 0, 8]\nclass = ceaser", fillcolor="#e683ef"] ;
683 -> 685 ;
686 [label="Top5Bigrams <= 1075.5\ngini = 0.32\nsamples = 10\nvalue = [0, 2, 0, 8]\nclass = ceaser", fillcolor="#e16aec"] ;
685 -> 686 ;
687 [label="IC <= 0.077\ngini = 0.198\nsamples = 9\nvalue = [0, 1, 0, 8]\nclass = ceaser", fillcolor="#dc52e8"] ;
686 -> 687 ;
688 [label="gini = 0.0\nsamples = 8\nvalue = [0, 0, 0, 8]\nclass = ceaser", fillcolor="#d739e5"] ;
687 -> 688 ;
689 [label="gini = 0.0\nsamples = 1\nvalue = [0, 1, 0, 0]\nclass = MonoalphabeticSubstitution", fillcolor="#47e539"] ;
687 -> 689 ;
690 [label="gini = 0.0\nsamples = 1\nvalue = [0, 1, 0, 0]\nclass = MonoalphabeticSubstitution", fillcolor="#47e539"] ;
686 -> 690 ;
691 [label="gini = 0.0\nsamples = 1\nvalue = [0, 1, 0, 0]\nclass = MonoalphabeticSubstitution", fillcolor="#47e539"] ;
685 -> 691 ;
692 [label="Top5Bigrams <= 700.0\ngini = 0.446\nsamples = 11\nvalue = [8, 1, 1, 1]\nclass = ColumnarTransposition", fillcolor="#eda774"] ;
674 -> 692 ;
693 [label="gini = 0.0\nsamples = 1\nvalue = [0, 0, 0, 1]\nclass = ceaser", fillcolor="#d739e5"] ;
692 -> 693 ;
694 [label="IC <= 0.084\ngini = 0.34\nsamples = 10\nvalue = [8, 1, 1, 0]\nclass = ColumnarTransposition", fillcolor="#eb9d65"] ;
692 -> 694 ;
695 [label="Top5Bigrams <= 867.0\ngini = 0.198\nsamples = 9\nvalue = [8, 0, 1, 0]\nclass = ColumnarTransposition", fillcolor="#e89152"] ;
694 -> 695 ;
696 [label="gini = 0.0\nsamples = 7\nvalue = [7, 0, 0, 0]\nclass = ColumnarTransposition", fillcolor="#e58139"] ;
695 -> 696 ;
697 [label="Top5Bigrams <= 932.0\ngini = 0.5\nsamples = 2\nvalue = [1, 0, 1, 0]\nclass = ColumnarTransposition", fillcolor="#ffffff"] ;
695 -> 697 ;
698 [label="gini = 0.0\nsamples = 1\nvalue = [0, 0, 1, 0]\nclass = Vigenere", fillcolor="#399de5"] ;
697 -> 698 ;
699 [label="gini = 0.0\nsamples = 1\nvalue = [1, 0, 0, 0]\nclass = ColumnarTransposition", fillcolor="#e58139"] ;
697 -> 699 ;
700 [label="gini = 0.0\nsamples = 1\nvalue = [0, 1, 0, 0]\nclass = MonoalphabeticSubstitution", fillcolor="#47e539"] ;
694 -> 700 ;
701 [label="Text <= 655.0\ngini = 0.523\nsamples = 49\nvalue = [6.0, 32.0, 2.0, 9.0]\nclass = MonoalphabeticSubstitution", fillcolor="#95f08d"] ;
673 -> 701 ;
702 [label="Top9Letters <= 800.5\ngini = 0.322\nsamples = 32\nvalue = [1, 26, 1, 4]\nclass = MonoalphabeticSubstitution", fillcolor="#6eeb63"] ;
701 -> 702 ;
703 [label="Top9Letters <= 797.5\ngini = 0.465\nsamples = 20\nvalue = [1, 14, 1, 4]\nclass = MonoalphabeticSubstitution", fillcolor="#8cef83"] ;
702 -> 703 ;
704 [label="Text <= 467.5\ngini = 0.41\nsamples = 19\nvalue = [1, 14, 0, 4]\nclass = MonoalphabeticSubstitution", fillcolor="#84ee7b"] ;
703 -> 704 ;
705 [label="Top5Bigrams <= 675.0\ngini = 0.64\nsamples = 5\nvalue = [1, 2, 0, 2]\nclass = MonoalphabeticSubstitution", fillcolor="#ffffff"] ;
704 -> 705 ;
706 [label="gini = 0.0\nsamples = 2\nvalue = [0, 0, 0, 2]\nclass = ceaser", fillcolor="#d739e5"] ;
705 -> 706 ;
707 [label="Top9Letters <= 729.0\ngini = 0.444\nsamples = 3\nvalue = [1, 2, 0, 0]\nclass = MonoalphabeticSubstitution", fillcolor="#a3f29c"] ;
705 -> 707 ;
708 [label="gini = 0.0\nsamples = 1\nvalue = [1, 0, 0, 0]\nclass = ColumnarTransposition", fillcolor="#e58139"] ;
707 -> 708 ;
709 [label="gini = 0.0\nsamples = 2\nvalue = [0, 2, 0, 0]\nclass = MonoalphabeticSubstitution", fillcolor="#47e539"] ;
707 -> 709 ;
710 [label="Text <= 566.5\ngini = 0.245\nsamples = 14\nvalue = [0, 12, 0, 2]\nclass = MonoalphabeticSubstitution", fillcolor="#66e95a"] ;
704 -> 710 ;
711 [label="gini = 0.0\nsamples = 9\nvalue = [0, 9, 0, 0]\nclass = MonoalphabeticSubstitution", fillcolor="#47e539"] ;
710 -> 711 ;
712 [label="Text <= 604.0\ngini = 0.48\nsamples = 5\nvalue = [0, 3, 0, 2]\nclass = MonoalphabeticSubstitution", fillcolor="#c2f6bd"] ;
710 -> 712 ;
713 [label="gini = 0.0\nsamples = 2\nvalue = [0, 0, 0, 2]\nclass = ceaser", fillcolor="#d739e5"] ;
712 -> 713 ;
714 [label="gini = 0.0\nsamples = 3\nvalue = [0, 3, 0, 0]\nclass = MonoalphabeticSubstitution", fillcolor="#47e539"] ;
712 -> 714 ;
715 [label="gini = 0.0\nsamples = 1\nvalue = [0, 0, 1, 0]\nclass = Vigenere", fillcolor="#399de5"] ;
703 -> 715 ;
716 [label="gini = 0.0\nsamples = 12\nvalue = [0, 12, 0, 0]\nclass = MonoalphabeticSubstitution", fillcolor="#47e539"] ;
702 -> 716 ;
717 [label="Text <= 683.5\ngini = 0.699\nsamples = 17\nvalue = [5, 6, 1, 5]\nclass = MonoalphabeticSubstitution", fillcolor="#f0fdee"] ;
701 -> 717 ;
718 [label="gini = 0.0\nsamples = 5\nvalue = [0, 0, 0, 5]\nclass = ceaser", fillcolor="#d739e5"] ;
717 -> 718 ;
719 [label="Top9Letters <= 843.0\ngini = 0.569\nsamples = 12\nvalue = [5, 6, 1, 0]\nclass = MonoalphabeticSubstitution", fillcolor="#e5fbe3"] ;
717 -> 719 ;
720 [label="Top5Bigrams <= 810.0\ngini = 0.531\nsamples = 8\nvalue = [5, 2, 1, 0]\nclass = ColumnarTransposition", fillcolor="#f2c09c"] ;
719 -> 720 ;
721 [label="Top9Letters <= 759.5\ngini = 0.625\nsamples = 4\nvalue = [1, 2, 1, 0]\nclass = MonoalphabeticSubstitution", fillcolor="#c2f6bd"] ;
720 -> 721 ;
722 [label="Top5Bigrams <= 687.5\ngini = 0.5\nsamples = 2\nvalue = [1, 0, 1, 0]\nclass = ColumnarTransposition", fillcolor="#ffffff"] ;
721 -> 722 ;
723 [label="gini = 0.0\nsamples = 1\nvalue = [0, 0, 1, 0]\nclass = Vigenere", fillcolor="#399de5"] ;
722 -> 723 ;
724 [label="gini = 0.0\nsamples = 1\nvalue = [1, 0, 0, 0]\nclass = ColumnarTransposition", fillcolor="#e58139"] ;
722 -> 724 ;
725 [label="gini = 0.0\nsamples = 2\nvalue = [0, 2, 0, 0]\nclass = MonoalphabeticSubstitution", fillcolor="#47e539"] ;
721 -> 725 ;
726 [label="gini = 0.0\nsamples = 4\nvalue = [4, 0, 0, 0]\nclass = ColumnarTransposition", fillcolor="#e58139"] ;
720 -> 726 ;
727 [label="gini = 0.0\nsamples = 4\nvalue = [0, 4, 0, 0]\nclass = MonoalphabeticSubstitution", fillcolor="#47e539"] ;
719 -> 727 ;
728 [label="Text <= 1308.0\ngini = 0.548\nsamples = 156\nvalue = [15, 46, 2, 93]\nclass = ceaser", fillcolor="#eeaaf4"] ;
672 -> 728 ;
729 [label="Top9Letters <= 597.0\ngini = 0.457\nsamples = 128\nvalue = [9, 30, 0, 89]\nclass = ceaser", fillcolor="#e788ef"] ;
728 -> 729 ;
730 [label="gini = 0.0\nsamples = 3\nvalue = [0, 3, 0, 0]\nclass = MonoalphabeticSubstitution", fillcolor="#47e539"] ;
729 -> 730 ;
731 [label="Top5Bigrams <= 1069.5\ngini = 0.441\nsamples = 125\nvalue = [9, 27, 0, 89]\nclass = ceaser", fillcolor="#e682ef"] ;
729 -> 731 ;
732 [label="Text <= 873.5\ngini = 0.424\nsamples = 122\nvalue = [9, 24, 0, 89]\nclass = ceaser", fillcolor="#e47cee"] ;
731 -> 732 ;
733 [label="Top5Bigrams <= 693.5\ngini = 0.472\nsamples = 34\nvalue = [0, 13, 0, 21]\nclass = ceaser", fillcolor="#f0b4f5"] ;
732 -> 733 ;
734 [label="gini = 0.0\nsamples = 21\nvalue = [0, 0, 0, 21]\nclass = ceaser", fillcolor="#d739e5"] ;
733 -> 734 ;
735 [label="gini = 0.0\nsamples = 13\nvalue = [0, 13, 0, 0]\nclass = MonoalphabeticSubstitution", fillcolor="#47e539"] ;
733 -> 735 ;
736 [label="Top5Bigrams <= 718.5\ngini = 0.377\nsamples = 88\nvalue = [9, 11, 0, 68]\nclass = ceaser", fillcolor="#e16cec"] ;
732 -> 736 ;
737 [label="Text <= 901.0\ngini = 0.568\nsamples = 9\nvalue = [1, 5, 0, 3]\nclass = MonoalphabeticSubstitution", fillcolor="#c2f6bd"] ;
736 -> 737 ;
738 [label="gini = 0.0\nsamples = 1\nvalue = [0, 0, 0, 1]\nclass = ceaser", fillcolor="#d739e5"] ;
737 -> 738 ;
739 [label="Text <= 1045.0\ngini = 0.531\nsamples = 8\nvalue = [1, 5, 0, 2]\nclass = MonoalphabeticSubstitution", fillcolor="#a3f29c"] ;
737 -> 739 ;
740 [label="Top9Letters <= 695.0\ngini = 0.375\nsamples = 4\nvalue = [1, 3, 0, 0]\nclass = MonoalphabeticSubstitution", fillcolor="#84ee7b"] ;
739 -> 740 ;
741 [label="gini = 0.0\nsamples = 3\nvalue = [0, 3, 0, 0]\nclass = MonoalphabeticSubstitution", fillcolor="#47e539"] ;
740 -> 741 ;
742 [label="gini = 0.0\nsamples = 1\nvalue = [1, 0, 0, 0]\nclass = ColumnarTransposition", fillcolor="#e58139"] ;
740 -> 742 ;
743 [label="Top9Letters <= 640.5\ngini = 0.5\nsamples = 4\nvalue = [0, 2, 0, 2]\nclass = MonoalphabeticSubstitution", fillcolor="#ffffff"] ;
739 -> 743 ;
744 [label="gini = 0.0\nsamples = 1\nvalue = [0, 0, 0, 1]\nclass = ceaser", fillcolor="#d739e5"] ;
743 -> 744 ;
745 [label="IC <= 0.068\ngini = 0.444\nsamples = 3\nvalue = [0, 2, 0, 1]\nclass = MonoalphabeticSubstitution", fillcolor="#a3f29c"] ;
743 -> 745 ;
746 [label="gini = 0.0\nsamples = 2\nvalue = [0, 2, 0, 0]\nclass = MonoalphabeticSubstitution", fillcolor="#47e539"] ;
745 -> 746 ;
747 [label="gini = 0.0\nsamples = 1\nvalue = [0, 0, 0, 1]\nclass = ceaser", fillcolor="#d739e5"] ;
745 -> 747 ;
748 [label="IC <= 0.069\ngini = 0.307\nsamples = 79\nvalue = [8, 6, 0, 65]\nclass = ceaser", fillcolor="#df60ea"] ;
736 -> 748 ;
